svm_type c_svc
kernel_type rbf
gamma 0.0625
nr_class 2
total_sv 133
rho -0.261596
label 1 -1
probA -5.01585
probB 0.275821
nr_sv 80 53
SV
0.4753545542788266 1:0.1667 2:0.1667 3:0.1667 4:0.1833 5:0.1833 6:0.1833 7:0.1833 8:0.1833 9:0.2 10:0.2 11:0.2 12:0.25 13:0.25 14:0.3333 15:0.3333 16:0.3833 17:0.4167 18:0.55 19:0.5833 20:0.5833 21:0.5833 22:0.45 23:0.45 24:0.45 25:0.45 26:0.45 27:0.45 28:0.4167 29:0.3667 30:0.3667 31:0.35 32:0.3333 33:0.3333 34:0.3167 35:0.3333 36:0.3333 37:0.3167 38:0.3333 39:0.3333 40:0.3167 41:0.3333 42:0.3167 43:0.3167 44:0.3167 45:0.3167 46:0.1667 47:0.15 48:0.1667 49:0.1667 50:0.1667 51:0.1667 52:0.1667 53:0.1667 54:0.15 55:0.15 56:0.1333 57:0.1333 58:0.1333 59:0.1333 60:0.1333 61:0.1333 62:0.1333 63:0.15 64:0.15 65:0.1333 66:0.1333 67:0.1333 68:0.1333 69:0.15 70:0.15 71:0.15 72:0.1333 73:0.1333 74:0.1333 75:0.15 76:0.15 77:0.15 78:0.1333 79:0.1333 80:0.1333 81:0.1333 82:0.1333 83:0.1333 84:0.1333 85:0.1333 86:0.1333 87:0.1333 88:0.15 89:0.3 90:0.4667 91:1 92:1 93:1 94:1 95:1 96:1 97:0.9833 98:0.75 99:0.7333 100:0.6167 101:0.5167 102:0.5167 103:0.5167 104:0.4 105:0.4 106:0.4 107:0.4 108:0.4 109:0.4 110:0.4 111:0.2667 112:0.25 113:0.25 114:0.25 115:0.25 116:0.25 117:0.25 118:0.25 119:0.25 120:0.25 121:0.25 122:0.25 123:0.25 124:0.25 125:0.25 126:0.25 127:0.25 128:0.25 129:0.25 130:0.25 131:0.25 132:0.2667 133:0.1333 134:0.1333 135:0.1333 136:0.1333 137:0.1333 138:0.1333 139:0.1333 140:0.15 141:0.1333 142:0.087684211 143:0.087684211 144:0.087684211 145:0.10526316 146:0.10526316 147:0.10526316 148:0.087684211 149:0.087684211 150:0.087684211 151:0.087684211 152:0.10526316 153:0.10526316 154:0.087684211 155:0.087684211 156:0.087684211 157:0.071389541 158:0.071389541 159:0.071389541 160:0.071389541 161:0.071389541 162:0.071389541 163:0.071389541 164:0.071389541 165:0.089282462 166:0.089282462 167:0.14285408 168:0.14285408 169:0.14285408 170:0.14285408 171:0.14285408 172:0.12496116 173:0.089282462 174:0.089282462 175:0.089282462 176:0.089282462 177:0.089282462 178:0.089282462 179:0.089282462 180:0.089282462 181:0.089282462 182:0.089282462 183:0.089282462 184:0.089282462 185:0.053603763 186:0.053603763 187:0.053603763 188:0.053603763 189:0.053603763 190:0.053603763 191:0.053603763 192:0.053603763 193:0.053603763 194:0.053603763 195:0.053603763 196:0.071389541 197:0.071389541 198:0.071389541 199:0.071389541 200:0.053603763 201:0.053603763 202:0.071389541 203:0.071389541 204:0.071389541 205:0.071389541 206:0.071389541 207:0.053603763 208:0.053603763 209:0.053603763 210:0.071389541 211:0.071389541 212:0.071389541 213:0.053603763 214:0.053603763 215:0.053603763 216:0.053603763 217:0.053603763 218:0.053603763 219:0.053603763 220:0.071389541 221:0.1333 222:0.1333 223:0.2167 224:0.2167 225:0.2333 226:0.2333 227:0.2333 228:0.2667 229:0.2667 230:0.2667 231:0.2667 232:0.2667 233:0.2667 234:0.2667 235:0.2667 236:0.2667 237:0.2667 238:0.2667 239:0.2667 240:0.2667 241:0.2667 242:0.2667 243:0.2667 244:0.2667 245:0.2667 246:0.2667 247:0.2667 248:0.2667 249:0.2667 250:0.2667 251:0.2667 252:0.2833 253:0.4167 254:0.4167 255:0.4167 256:0.55 257:0.55 258:0.55 259:0.55 260:0.5667 261:0.7167 262:0.7167 263:1 264:1 265:1 266:1 267:1 268:1 269:1 270:1 271:0.9833 272:0.4667 273:0.4667 274:0.15 275:0.1333 276:0.1333 277:0.1333 278:0.1333 279:0.1333 280:0.1333 281:0.1333 282:0.1333 283:0.1333 284:0.1333 285:0.15 286:0.15 287:0.15 288:0.1333 289:0.1333 290:0.1333 291:0.1167 292:0.1167 293:0.1167 294:0.1167 295:0.1333 296:0.1333 297:0.1333 298:0.1167 299:0.1167 300:0.1167 301:0.1167 302:0.1167 303:0.1167 304:0.1167 305:0.1167 306:0.1167 307:0.1167 308:0.1167 309:0.1167 310:0.1167 311:0.1333 312:0.1333 313:0.1167 314:0.1167 315:0.1167 316:0.1167 317:0.1167 318:0.1333 319:0.1167 320:0.1167 321:0.1167 322:0.1167 323:0.1167 324:0.1167 325:0.1167 326:0.1333 327:0.1167 328:0.1167 329:0.1167 330:0.1167 331:0.1167 332:0.1167 333:0.1167 334:0.1333 335:0.1333 336:0.1333 337:0.1333 338:0.1333 339:0.1333 340:0.1333 341:0.1333 342:0.1333 343:0.1333 344:0.1333 345:0.15 346:0.15 347:0.15 348:0.15 349:0.15 350:0.15 351:0.1333 352:0.15 353:0.15 354:0.15 355:0.15 356:0.15 357:0.15 358:0.15 359:0.1667 360:0.1667 
2 1:0.2167 2:0.2167 3:0.2167 4:0.2333 5:0.2333 6:0.2333 7:0.2667 8:0.2667 9:0.2667 10:0.3667 11:0.3667 12:0.3667 13:0.3833 14:0.3833 15:0.4667 16:0.6167 17:0.6167 18:0.4833 19:0.4667 20:0.4667 21:0.4667 22:0.4667 23:0.4667 24:0.4667 25:0.4667 26:0.3667 27:0.3667 28:0.35 29:0.3333 30:0.35 31:0.35 32:0.35 33:0.1667 34:0.1667 35:0.1667 36:0.1667 37:0.1667 38:0.1667 39:0.1667 40:0.1667 41:0.1667 42:0.1667 43:0.1667 44:0.1667 45:0.1667 46:0.1667 47:0.15 48:0.15 49:0.15 50:0.15 51:0.15 52:0.15 53:0.15 54:0.15 55:0.15 56:0.15 57:0.15 58:0.15 59:0.1667 60:0.15 61:0.15 62:0.15 63:0.15 64:0.15 65:0.15 66:0.15 67:0.15 68:0.15 69:0.15 70:0.15 71:0.15 72:0.15 73:0.15 74:0.15 75:0.15 76:0.15 77:0.1667 78:0.3 79:0.3 80:0.3 81:0.3 82:0.3 83:0.3 84:0.3667 85:0.45 86:0.6 87:0.6 88:0.9333 89:1 90:1 91:1 92:1 93:1 94:1 95:0.95 96:0.7 97:0.5833 98:0.6 99:0.5833 100:0.3833 101:0.3833 102:0.3833 103:0.3833 104:0.3833 105:0.2333 106:0.2167 107:0.2167 108:0.2167 109:0.2167 110:0.2167 111:0.2167 112:0.2167 113:0.2167 114:0.2333 115:0.2167 116:0.2167 117:0.2167 118:0.2333 119:0.2167 120:0.2167 121:0.2167 122:0.2167 123:0.2167 124:0.2167 125:0.1 126:0.1 127:0.1 128:0.1 129:0.1 130:0.1 131:0.1 132:0.1 133:0.1 134:0.1 135:0.1 136:0.1 137:0.1 138:0.1 139:0.1 140:0.1 141:0.1 142:0.052631579 143:0.052631579 144:0.052631579 145:0.052631579 146:0.052631579 147:0.052631579 148:0.052631579 149:0.052631579 150:0.052631579 151:0.052631579 152:0.052631579 153:0.052631579 154:0.052631579 155:0.052631579 156:0.052631579 157:0.035710842 158:0.035710842 159:0.035710842 160:0.035710842 161:0.035710842 162:0.035710842 163:0.035710842 164:0.035710842 165:0.035710842 166:0.035710842 167:0.035710842 168:0.035710842 169:0.053603763 170:0.089282462 171:0.089282462 172:0.089282462 173:0.089282462 174:0.089282462 175:0.089282462 176:0.089282462 177:0.089282462 178:0.089282462 179:0.089282462 180:0.089282462 181:0.089282462 182:0.089282462 183:0.089282462 184:0.089282462 185:0.089282462 186:0.089282462 187:0.089282462 188:0.089282462 189:0.089282462 190:0.089282462 191:0.089282462 192:0.089282462 193:0.089282462 194:0.035710842 195:0.035710842 196:0.035710842 197:0.035710842 198:0.035710842 199:0.035710842 200:0.035710842 201:0.035710842 202:0.035710842 203:0.035710842 204:0.035710842 205:0.035710842 206:0.035710842 207:0.035710842 208:0.035710842 209:0.035710842 210:0.035710842 211:0.035710842 212:0.035710842 213:0.035710842 214:0.035710842 215:0.035710842 216:0.035710842 217:0.035710842 218:0.035710842 219:0.035710842 220:0.035710842 221:0.1 222:0.1 223:0.1 224:0.1 225:0.1 226:0.1 227:0.1 228:0.1 229:0.1 230:0.1 231:0.1 232:0.1 233:0.1 234:0.1 235:0.1 236:0.1 237:0.1 238:0.2167 239:0.2167 240:0.2 241:0.2667 242:0.2667 243:0.2 244:0.2 245:0.2667 246:0.2667 247:0.2667 248:0.2667 249:0.2667 250:0.2667 251:0.2667 252:0.2667 253:0.2667 254:0.2667 255:0.2667 256:0.2667 257:0.2667 258:0.2667 259:0.4167 260:0.4167 261:0.5667 262:0.5667 263:0.5667 264:0.7167 265:0.7167 266:1 267:1 268:1 269:1 270:1 271:1 272:1 273:0.9833 274:0.8333 275:0.6667 276:0.4833 277:0.4833 278:0.4833 279:0.4833 280:0.4667 281:0.4333 282:0.3833 283:0.3667 284:0.1833 285:0.1667 286:0.1667 287:0.1667 288:0.1667 289:0.1667 290:0.1667 291:0.1667 292:0.1667 293:0.1667 294:0.1667 295:0.1667 296:0.1667 297:0.1667 298:0.1667 299:0.1667 300:0.15 301:0.15 302:0.15 303:0.1667 304:0.1667 305:0.1667 306:0.15 307:0.15 308:0.15 309:0.15 310:0.15 311:0.1667 312:0.15 313:0.1667 314:0.15 315:0.1667 316:0.1667 317:0.15 318:0.15 319:0.1667 320:0.15 321:0.1667 322:0.15 323:0.15 324:0.15 325:0.15 326:0.15 327:0.1667 328:0.1667 329:0.1667 330:0.15 331:0.15 332:0.15 333:0.1667 334:0.1667 335:0.1667 336:0.1667 337:0.1667 338:0.1667 339:0.15 340:0.1667 341:0.1667 342:0.1667 343:0.1667 344:0.1667 345:0.1667 346:0.1667 347:0.1667 348:0.1833 349:0.1833 350:0.1833 351:0.1833 352:0.1667 353:0.1667 354:0.2 355:0.2 356:0.2 357:0.2 358:0.2 359:0.2167 360:0.2167 
2 1:0.2833 2:0.2833 3:0.3833 4:0.3833 5:0.3833 6:0.3833 7:0.4 8:0.4 9:0.4 10:0.4833 11:0.4833 12:0.5333 13:0.5667 14:0.6 15:0.45 16:0.4333 17:0.45 18:0.4333 19:0.45 20:0.3333 21:0.1167 22:0.1167 23:0.1167 24:0.1167 25:0.1333 26:0.1333 27:0.1333 28:0.1167 29:0.1167 30:0.1167 31:0.1167 32:0.1167 33:0.1167 34:0.1167 35:0.1 36:0.1 37:0.1167 38:0.1167 39:0.1167 40:0.1167 41:0.1167 42:0.1167 43:0.1167 44:0.1167 45:0.1167 46:0.1167 47:0.1167 48:0.1167 49:0.1167 50:0.1167 51:0.1167 52:0.1167 53:0.1167 54:0.1167 55:0.1167 56:0.1167 57:0.1167 58:0.1167 59:0.1167 60:0.1167 61:0.1167 62:0.1167 63:0.1167 64:0.1167 65:0.1167 66:0.1167 67:0.1 68:0.1 69:0.1167 70:0.1167 71:0.1167 72:0.25 73:0.25 74:0.25 75:0.25 76:0.25 77:0.25 78:0.25 79:0.25 80:0.25 81:0.25 82:0.2667 83:0.25 84:0.25 85:0.25 86:0.3167 87:0.8833 88:0.8833 89:1 90:1 91:1 92:1 93:1 94:1 95:0.9 96:0.6667 97:0.55 98:0.55 99:0.55 100:0.3667 101:0.35 102:0.35 103:0.35 104:0.35 105:0.35 106:0.35 107:0.35 108:0.35 109:0.1833 110:0.1833 111:0.1833 112:0.35 113:0.35 114:0.1833 115:0.1833 116:0.2 117:0.3833 118:0.4 119:0.1833 120:0.2 121:0.2 122:0.3833 123:0.1833 124:0.1833 125:0.1833 126:0.4 127:0.3833 128:0.1833 129:0.1833 130:0.1833 131:0.2167 132:0.2167 133:0.2167 134:0.1833 135:0.1833 136:0.1833 137:0.1833 138:0.1833 139:0.1667 140:0.08333 141:0.08333 142:0.035084211 143:0.035084211 144:0.035084211 145:0.035084211 146:0.035084211 147:0.035084211 148:0.035084211 149:0.035084211 150:0.035084211 151:0.035084211 152:0.035084211 153:0.035084211 154:0.035084211 155:0.035084211 156:0.035084211 157:0.017850064 158:0.017850064 159:0.017850064 160:0.017850064 161:0.017850064 162:0.017850064 163:0.017850064 164:0.017850064 165:0.017850064 166:0.017850064 167:0.017850064 168:0.017850064 169:0.017850064 170:0.017850064 171:0.017850064 172:0.017850064 173:0.017850064 174:0.017850064 175:0.017850064 176:0.017850064 177:0.017850064 178:0.017850064 179:0.017850064 180:0.017850064 181:0.017850064 182:0.017850064 183:0.017850064 184:0.017850064 185:0.017850064 186:0.017850064 187:0.017850064 188:0.017850064 189:0.017850064 190:0.017850064 191:0.017850064 192:0.017850064 193:0.017850064 194:0.017850064 195:0.089282462 196:0.089282462 197:0.089282462 198:0.089282462 199:0.089282462 200:0.089282462 201:0.089282462 202:0.089282462 203:0.089282462 204:0.089282462 205:0.089282462 206:0.089282462 207:0.089282462 208:0.089282462 209:0.089282462 210:0.089282462 211:0.089282462 212:0.089282462 213:0.089282462 214:0.089282462 215:0.089282462 216:0.089282462 217:0.089282462 218:0.089282462 219:0.089282462 220:0.089282462 221:0.15 222:0.15 223:0.15 224:0.15 225:0.15 226:0.15 227:0.15 228:0.15 229:0.15 230:0.15 231:0.15 232:0.15 233:0.15 234:0.15 235:0.15 236:0.15 237:0.15 238:0.15 239:0.15 240:0.15 241:0.15 242:0.15 243:0.2 244:0.2 245:0.3 246:0.3 247:0.3 248:0.3 249:0.3 250:0.3 251:0.3 252:0.3 253:0.3 254:0.3 255:0.3 256:0.3 257:0.3 258:0.3667 259:0.3667 260:0.3833 261:0.45 262:0.4667 263:0.6 264:0.6167 265:0.7333 266:1 267:1 268:1 269:1 270:1 271:1 272:1 273:1 274:0.8 275:0.7 276:0.5333 277:0.5333 278:0.5333 279:0.5333 280:0.4667 281:0.4333 282:0.2167 283:0.2 284:0.2 285:0.2 286:0.2 287:0.2 288:0.2 289:0.2 290:0.2 291:0.2 292:0.2 293:0.2 294:0.1833 295:0.1833 296:0.1833 297:0.1833 298:0.1833 299:0.1833 300:0.1833 301:0.1833 302:0.1833 303:0.1833 304:0.1833 305:0.1833 306:0.1833 307:0.1833 308:0.1833 309:0.1833 310:0.1833 311:0.1833 312:0.1833 313:0.1833 314:0.1833 315:0.1833 316:0.1833 317:0.1833 318:0.1833 319:0.1833 320:0.2 321:0.2 322:0.2 323:0.2 324:0.2 325:0.1833 326:0.1833 327:0.2 328:0.2 329:0.2 330:0.2 331:0.2 332:0.1833 333:0.2 334:0.2 335:0.2 336:0.2 337:0.2 338:0.2 339:0.2 340:0.2 341:0.2 342:0.2 343:0.2 344:0.2 345:0.2 346:0.2167 347:0.2167 348:0.2167 349:0.2167 350:0.2167 351:0.2333 352:0.2333 353:0.2333 354:0.2333 355:0.2333 356:0.25 357:0.25 358:0.25 359:0.25 360:0.2833 
0.1962220074588565 1:0.2 2:0.2 3:0.2 4:0.2167 5:0.2167 6:0.2167 7:0.2167 8:0.25 9:0.25 10:0.2833 11:0.2833 12:0.2833 13:0.3833 14:0.3833 15:0.4 16:0.4333 17:0.4833 18:0.5667 19:0.6333 20:0.6667 21:0.4667 22:0.4833 23:0.4667 24:0.4833 25:0.4833 26:0.4833 27:0.4333 28:0.35 29:0.3667 30:0.35 31:0.35 32:0.35 33:0.35 34:0.35 35:0.35 36:0.3333 37:0.3333 38:0.15 39:0.15 40:0.15 41:0.1667 42:0.1667 43:0.1667 44:0.15 45:0.1667 46:0.1667 47:0.15 48:0.15 49:0.15 50:0.15 51:0.15 52:0.15 53:0.15 54:0.15 55:0.15 56:0.15 57:0.15 58:0.15 59:0.1667 60:0.15 61:0.15 62:0.15 63:0.15 64:0.15 65:0.15 66:0.15 67:0.15 68:0.15 69:0.15 70:0.15 71:0.15 72:0.15 73:0.15 74:0.15 75:0.15 76:0.15 77:0.1667 78:0.3 79:0.3 80:0.3 81:0.3 82:0.3 83:0.3 84:0.3833 85:0.3833 86:0.3833 87:0.3833 88:0.9333 89:0.95 90:1 91:1 92:1 93:1 94:1 95:1 96:0.7167 97:0.6 98:0.6 99:0.4167 100:0.4 101:0.4 102:0.4 103:0.4 104:0.4 105:0.2333 106:0.2333 107:0.2333 108:0.2333 109:0.2333 110:0.2333 111:0.2333 112:0.2333 113:0.2333 114:0.2333 115:0.2333 116:0.2333 117:0.2333 118:0.2333 119:0.2333 120:0.2333 121:0.2333 122:0.2333 123:0.2333 124:0.1333 125:0.1 126:0.1 127:0.1 128:0.1 129:0.1 130:0.1 131:0.1 132:0.1 133:0.1 134:0.1 135:0.1 136:0.1 137:0.1 138:0.1 139:0.1 140:0.1 141:0.1 142:0.052631579 143:0.052631579 144:0.052631579 145:0.052631579 146:0.052631579 147:0.052631579 148:0.052631579 149:0.052631579 150:0.052631579 151:0.052631579 152:0.052631579 153:0.052631579 154:0.052631579 155:0.052631579 156:0.052631579 157:0.035710842 158:0.035710842 159:0.035710842 160:0.035710842 161:0.035710842 162:0.035710842 163:0.035710842 164:0.035710842 165:0.035710842 166:0.035710842 167:0.035710842 168:0.035710842 169:0.053603763 170:0.089282462 171:0.089282462 172:0.089282462 173:0.089282462 174:0.089282462 175:0.089282462 176:0.089282462 177:0.089282462 178:0.089282462 179:0.089282462 180:0.089282462 181:0.089282462 182:0.089282462 183:0.089282462 184:0.089282462 185:0.089282462 186:0.089282462 187:0.089282462 188:0.089282462 189:0.089282462 190:0.089282462 191:0.089282462 192:0.089282462 193:0.053603763 194:0.053603763 195:0.053603763 196:0.053603763 197:0.053603763 198:0.053603763 199:0.053603763 200:0.053603763 201:0.053603763 202:0.053603763 203:0.053603763 204:0.053603763 205:0.053603763 206:0.053603763 207:0.053603763 208:0.053603763 209:0.053603763 210:0.053603763 211:0.053603763 212:0.053603763 213:0.053603763 214:0.053603763 215:0.053603763 216:0.053603763 217:0.053603763 218:0.053603763 219:0.053603763 220:0.053603763 221:0.1167 222:0.1167 223:0.1167 224:0.1167 225:0.1167 226:0.1167 227:0.1167 228:0.1167 229:0.1167 230:0.1167 231:0.1167 232:0.1167 233:0.1167 234:0.2 235:0.1833 236:0.1833 237:0.25 238:0.25 239:0.25 240:0.25 241:0.25 242:0.25 243:0.25 244:0.25 245:0.25 246:0.25 247:0.25 248:0.2667 249:0.2667 250:0.25 251:0.2667 252:0.2667 253:0.25 254:0.25 255:0.3167 256:0.3167 257:0.3167 258:0.35 259:0.35 260:0.4 261:0.55 262:0.55 263:0.55 264:0.7 265:1 266:1 267:1 268:1 269:1 270:1 271:1 272:1 273:0.9833 274:0.8333 275:0.65 276:0.4833 277:0.4833 278:0.4833 279:0.3 280:0.3167 281:0.3167 282:0.3167 283:0.3167 284:0.25 285:0.1667 286:0.15 287:0.15 288:0.15 289:0.15 290:0.15 291:0.15 292:0.15 293:0.15 294:0.15 295:0.15 296:0.15 297:0.15 298:0.15 299:0.15 300:0.15 301:0.15 302:0.15 303:0.1667 304:0.15 305:0.15 306:0.15 307:0.15 308:0.15 309:0.15 310:0.15 311:0.15 312:0.15 313:0.15 314:0.15 315:0.1667 316:0.1667 317:0.15 318:0.15 319:0.1667 320:0.15 321:0.1667 322:0.15 323:0.15 324:0.15 325:0.15 326:0.15 327:0.1667 328:0.1667 329:0.1667 330:0.15 331:0.15 332:0.15 333:0.1667 334:0.1667 335:0.1667 336:0.1667 337:0.1667 338:0.1667 339:0.15 340:0.1667 341:0.1667 342:0.1667 343:0.1667 344:0.1667 345:0.1667 346:0.1667 347:0.1667 348:0.1833 349:0.1833 350:0.1833 351:0.1833 352:0.1667 353:0.1667 354:0.1833 355:0.1833 356:0.1833 357:0.1833 358:0.1833 359:0.2 360:0.2 
0.5750544513633736 1:0.25 2:0.25 3:0.2833 4:0.2833 5:0.2833 6:0.3167 7:0.3167 8:0.3167 9:0.3667 10:0.4 11:0.4 12:0.4 13:0.4167 14:0.4 15:0.4167 16:0.4 17:0.4 18:0.4167 19:0.4167 20:0.4167 21:0.4167 22:0.3 23:0.2833 24:0.2833 25:0.2833 26:0.1 27:0.1 28:0.08333 29:0.08333 30:0.08333 31:0.08333 32:0.08333 33:0.08333 34:0.08333 35:0.08333 36:0.08333 37:0.08333 38:0.08333 39:0.1 40:0.08333 41:0.08333 42:0.08333 43:0.08333 44:0.08333 45:0.08333 46:0.08333 47:0.08333 48:0.08333 49:0.08333 50:0.08333 51:0.08333 52:0.08333 53:0.08333 54:0.08333 55:0.08333 56:0.1 57:0.08333 58:0.1 59:0.08333 60:0.08333 61:0.08333 62:0.08333 63:0.08333 64:0.08333 65:0.08333 66:0.08333 67:0.08333 68:0.08333 69:0.08333 70:0.08333 71:0.08333 72:0.08333 73:0.08333 74:0.08333 75:0.08333 76:0.08333 77:0.1 78:0.1 79:0.1 80:0.08333 81:0.08333 82:0.08333 83:0.08333 84:0.08333 85:0.08333 86:0.08333 87:0.2333 88:0.2333 89:0.2333 90:0.2333 91:0.2333 92:0.2333 93:1 94:1 95:1 96:1 97:1 98:1 99:0.9167 100:0.6833 101:0.6667 102:0.5667 103:0.55 104:0.55 105:0.55 106:0.55 107:0.45 108:0.3667 109:0.35 110:0.35 111:0.35 112:0.35 113:0.35 114:0.35 115:0.35 116:0.35 117:0.35 118:0.35 119:0.35 120:0.2167 121:0.2167 122:0.2167 123:0.2 124:0.2 125:0.2 126:0.2 127:0.2167 128:0.2 129:0.2 130:0.2167 131:0.2167 132:0.2 133:0.2 134:0.2 135:0.2167 136:0.2167 137:0.2 138:0.2 139:0.2167 140:0.2167 141:0.2 142:0.15789474 143:0.15789474 144:0.17547368 145:0.17547368 146:0.17547368 147:0.087684211 148:0.087684211 149:0.087684211 150:0.087684211 151:0.087684211 152:0.087684211 153:0.087684211 154:0.087684211 155:0.087684211 156:0.087684211 157:0.053603763 158:0.053603763 159:0.053603763 160:0.053603763 161:0.053603763 162:0.053603763 163:0.053603763 164:0.053603763 165:0.053603763 166:0.053603763 167:0.053603763 168:0.053603763 169:0.053603763 170:0.053603763 171:0.053603763 172:0.053603763 173:0.053603763 174:0.053603763 175:0.053603763 176:0.053603763 177:0.053603763 178:0.053603763 179:0.053603763 180:0.053603763 181:0.053603763 182:0.053603763 183:0.053603763 184:0.053603763 185:0.053603763 186:0.053603763 187:0.053603763 188:0.053603763 189:0.053603763 190:0.053603763 191:0.053603763 192:0.14285408 193:0.14285408 194:0.14285408 195:0.14285408 196:0.14285408 197:0.14285408 198:0.14285408 199:0.14285408 200:0.14285408 201:0.14285408 202:0.14285408 203:0.14285408 204:0.14285408 205:0.14285408 206:0.14285408 207:0.14285408 208:0.14285408 209:0.14285408 210:0.14285408 211:0.14285408 212:0.14285408 213:0.14285408 214:0.14285408 215:0.17853278 216:0.17853278 217:0.17853278 218:0.17853278 219:0.17853278 220:0.17853278 221:0.2333 222:0.2333 223:0.25 224:0.25 225:0.25 226:0.25 227:0.25 228:0.2333 229:0.2333 230:0.25 231:0.25 232:0.25 233:0.2667 234:0.2667 235:0.2667 236:0.3 237:0.3 238:0.3 239:0.3 240:0.3 241:0.3 242:0.3 243:0.3 244:0.3 245:0.3 246:0.3 247:0.3 248:0.3 249:0.3 250:0.3 251:0.3167 252:0.3167 253:0.3167 254:0.3167 255:0.3333 256:0.35 257:0.3667 258:0.4 259:0.4 260:0.4 261:0.6167 262:0.6167 263:0.7667 264:0.7833 265:1 266:1 267:1 268:1 269:1 270:1 271:1 272:1 273:0.3667 274:0.1833 275:0.1833 276:0.1833 277:0.1833 278:0.1833 279:0.1833 280:0.1833 281:0.1833 282:0.1833 283:0.1833 284:0.1833 285:0.1667 286:0.1667 287:0.1667 288:0.1667 289:0.1667 290:0.1667 291:0.1667 292:0.1667 293:0.1667 294:0.1667 295:0.1667 296:0.1667 297:0.1667 298:0.1667 299:0.1667 300:0.1667 301:0.1667 302:0.1667 303:0.1667 304:0.1667 305:0.1667 306:0.1667 307:0.1667 308:0.1667 309:0.1667 310:0.1667 311:0.1667 312:0.1667 313:0.1667 314:0.1667 315:0.1667 316:0.1667 317:0.1667 318:0.1667 319:0.1667 320:0.1667 321:0.1667 322:0.1667 323:0.1667 324:0.1667 325:0.1667 326:0.1667 327:0.1667 328:0.1667 329:0.1667 330:0.1667 331:0.1667 332:0.1667 333:0.1667 334:0.1667 335:0.1667 336:0.2 337:0.2167 338:0.2167 339:0.2167 340:0.2167 341:0.2 342:0.2167 343:0.2167 344:0.2167 345:0.2167 346:0.2167 347:0.2167 348:0.2167 349:0.2 350:0.2167 351:0.2167 352:0.2 353:0.2 354:0.2 355:0.2167 356:0.2167 357:0.2167 358:0.2167 359:0.2333 360:0.25 
0.310011314534733 1:0.1333 2:0.1333 3:0.1333 4:0.1333 5:0.1333 6:0.1333 7:0.1333 8:0.1333 9:0.1333 10:0.1333 11:0.1333 12:0.1333 13:0.1333 14:0.1333 15:0.1333 16:0.1333 17:0.1333 18:0.1333 19:0.1333 20:0.1333 21:0.1333 22:0.1333 23:0.1333 24:0.1333 25:0.1333 26:0.1333 27:0.1333 28:0.1333 29:0.1333 30:0.1667 31:0.1667 32:0.1667 33:0.1667 34:0.1667 35:0.1667 36:0.1833 37:0.1833 38:0.1667 39:0.1667 40:0.1667 41:0.1833 42:0.1833 43:0.1667 44:0.1667 45:0.1667 46:0.1833 47:0.1667 48:0.1667 49:0.1667 50:0.1667 51:0.1667 52:0.1833 53:0.1833 54:0.1833 55:0.45 56:0.45 57:0.2667 58:0.45 59:0.45 60:0.2667 61:0.2667 62:0.5167 63:0.2667 64:0.2667 65:0.4 66:0.2667 67:0.2667 68:0.3833 69:0.3833 70:0.3833 71:0.3833 72:0.3833 73:0.3833 74:0.3833 75:0.3833 76:0.3833 77:0.3833 78:0.4 79:0.5167 80:0.5167 81:0.5167 82:0.7 83:0.7 84:0.7 85:0.8667 86:0.8667 87:0.8667 88:1 89:0.5667 90:0.5667 91:0.5667 92:0.5667 93:0.5667 94:0.5667 95:0.5667 96:0.5 97:0.5 98:0.5 99:0.5 100:0.5 101:0.5 102:0.5 103:0.5 104:0.5 105:0.5 106:0.5167 107:0.6667 108:0.6667 109:0.5667 110:0.5833 111:0.5667 112:0.5667 113:0.5667 114:0.5667 115:0.4333 116:0.4167 117:0.4333 118:0.4167 119:0.4333 120:0.4167 121:0.3167 122:0.3 123:0.3 124:0.3 125:0.3 126:0.3 127:0.3 128:0.1833 129:0.1833 130:0.1833 131:0.1833 132:0.1833 133:0.1833 134:0.1833 135:0.1833 136:0.1833 137:0.1833 138:0.1833 139:0.1833 140:0.1833 141:0.1833 142:0.14031579 143:0.14031579 144:0.14031579 145:0.14031579 146:0.14031579 147:0.14031579 148:0.14031579 149:0.14031579 150:0.14031579 151:0.14031579 152:0.14031579 153:0.14031579 154:0.14031579 155:0.14031579 156:0.14031579 157:0.12496116 158:0.12496116 159:0.12496116 160:0.12496116 161:0.12496116 162:0.12496116 163:0.12496116 164:0.12496116 165:0.12496116 166:0.12496116 167:0.12496116 168:0.12496116 169:0.12496116 170:0.12496116 171:0.12496116 172:0.12496116 173:0.12496116 174:0.12496116 175:0.12496116 176:0.12496116 177:0.12496116 178:0.12496116 179:0.12496116 180:0.12496116 181:0.12496116 182:0.12496116 183:0.12496116 184:0.75003482 185:1 186:1 187:1 188:1 189:1 190:1 191:0.91074968 192:0.75003482 193:0.75003482 194:0.55353412 195:0.55353412 196:0.55353412 197:0.41071218 198:0.41071218 199:0.41071218 200:0.41071218 201:0.41071218 202:0.30356894 203:0.30356894 204:0.30356894 205:0.30356894 206:0.30356894 207:0.30356894 208:0.30356894 209:0.35714056 210:0.30356894 211:0.30356894 212:0.30356894 213:0.17853278 214:0.17853278 215:0.17853278 216:0.160747 217:0.160747 218:0.160747 219:0.160747 220:0.160747 221:0.2167 222:0.2167 223:0.2167 224:0.2167 225:0.2167 226:0.2 227:0.2 228:0.2167 229:0.2167 230:0.2167 231:0.2 232:0.2167 233:0.2167 234:0.2167 235:0.2 236:0.2167 237:0.2167 238:0.2167 239:0.2167 240:0.2 241:0.2167 242:0.2167 243:0.2 244:0.2 245:0.2167 246:0.2167 247:0.2167 248:0.2167 249:0.2167 250:0.2167 251:0.2167 252:0.2667 253:0.25 254:0.25 255:0.2667 256:0.2667 257:0.2667 258:0.2667 259:0.2667 260:0.2833 261:0.2667 262:0.2667 263:0.2667 264:0.2667 265:0.2667 266:0.3167 267:0.3167 268:0.3167 269:0.3167 270:0.3833 271:0.3833 272:0.3833 273:0.4 274:0.4 275:0.9333 276:0.95 277:0.95 278:1 279:1 280:1 281:1 282:0.3 283:0.2833 284:0.25 285:0.2333 286:0.2167 287:0.2 288:0.2 289:0.1833 290:0.1833 291:0.1833 292:0.2 293:0.2 294:0.1833 295:0.1833 296:0.2 297:0.2 298:0.2 299:0.1833 300:0.2 301:0.2 302:0.2 303:0.1833 304:0.1833 305:0.1833 306:0.2 307:0.2 308:0.1833 309:0.1833 310:0.1833 311:0.2 312:0.2 313:0.2 314:0.2 315:0.2 316:0.2 317:0.2167 318:0.2167 319:0.2167 320:0.2167 321:0.2167 322:0.25 323:0.2833 324:0.2833 325:0.2833 326:0.2833 327:0.3 328:0.2833 329:0.2833 330:0.3 331:0.2833 332:0.2833 333:0.3 334:0.2833 335:0.2833 336:0.2833 337:0.2833 338:0.2833 339:0.2833 340:0.2667 341:0.2667 342:0.2667 343:0.2667 344:0.2667 345:0.2667 346:0.2667 347:0.2667 348:0.2667 349:0.2667 350:0.2667 351:0.2667 352:0.1333 353:0.1333 354:0.1333 355:0.1333 356:0.1333 357:0.1333 358:0.1333 359:0.1333 360:0.1333 
1.596701576076699 1:0.1333 2:0.1333 3:0.1333 4:0.1333 5:0.1333 6:0.1333 7:0.1333 8:0.1333 9:0.1333 10:0.1333 11:0.1333 12:0.1333 13:0.1333 14:0.1333 15:0.1333 16:0.1333 17:0.1333 18:0.1333 19:0.1333 20:0.1333 21:0.1333 22:0.1333 23:0.15 24:0.1667 25:0.1667 26:0.1667 27:0.1667 28:0.1667 29:0.1667 30:0.1667 31:0.1667 32:0.1667 33:0.1667 34:0.1667 35:0.1667 36:0.1667 37:0.1667 38:0.1667 39:0.1667 40:0.1667 41:0.1667 42:0.1667 43:0.1667 44:0.1667 45:0.15 46:0.1667 47:0.1667 48:0.1667 49:0.1667 50:0.1667 51:0.1667 52:0.25 53:0.25 54:0.25 55:0.25 56:0.25 57:0.25 58:0.25 59:0.25 60:0.25 61:0.25 62:0.25 63:0.25 64:0.25 65:0.25 66:0.25 67:0.25 68:0.25 69:0.25 70:0.25 71:0.3667 72:0.3833 73:0.3667 74:0.3667 75:0.3667 76:0.3667 77:0.3667 78:0.5167 79:0.5167 80:0.5167 81:0.5167 82:0.5167 83:0.5333 84:0.6667 85:0.6667 86:0.6667 87:0.85 88:0.85 89:1 90:1 91:1 92:0.7667 93:0.7667 94:0.7667 95:0.7667 96:0.7667 97:0.7667 98:0.8833 99:0.8833 100:0.4667 101:0.45 102:0.45 103:0.45 104:0.45 105:0.45 106:0.45 107:0.45 108:0.45 109:0.45 110:0.45 111:0.55 112:0.55 113:0.55 114:0.55 115:0.55 116:0.55 117:0.4 118:0.4167 119:0.4 120:0.4167 121:0.4167 122:0.4167 123:0.1667 124:0.1667 125:0.1667 126:0.1667 127:0.1667 128:0.1667 129:0.1667 130:0.1667 131:0.1667 132:0.1667 133:0.1667 134:0.1667 135:0.1667 136:0.1667 137:0.1667 138:0.1667 139:0.1667 140:0.1667 141:0.1667 142:0.12284211 143:0.12284211 144:0.12284211 145:0.12284211 146:0.12284211 147:0.12284211 148:0.12284211 149:0.12284211 150:0.12284211 151:0.12284211 152:0.12284211 153:0.12284211 154:0.12284211 155:0.12284211 156:0.14031579 157:0.12496116 158:0.12496116 159:0.12496116 160:0.12496116 161:0.12496116 162:0.12496116 163:0.12496116 164:0.12496116 165:0.12496116 166:0.12496116 167:0.12496116 168:0.12496116 169:0.12496116 170:0.12496116 171:0.12496116 172:0.12496116 173:0.12496116 174:0.12496116 175:0.12496116 176:0.12496116 177:0.12496116 178:0.12496116 179:0.14285408 180:0.14285408 181:0.14285408 182:0.14285408 183:0.14285408 184:0.14285408 185:0.14285408 186:0.14285408 187:0.14285408 188:1 189:1 190:1 191:1 192:0.91074968 193:0.91074968 194:0.75003482 195:0.75003482 196:0.57142704 197:0.55353412 198:0.55353412 199:0.41071218 200:0.41071218 201:0.41071218 202:0.41071218 203:0.41071218 204:0.32146186 205:0.32146186 206:0.32146186 207:0.32146186 208:0.32146186 209:0.32146186 210:0.32146186 211:0.32146186 212:0.32146186 213:0.32146186 214:0.32146186 215:0.1964257 216:0.1964257 217:0.1964257 218:0.17853278 219:0.17853278 220:0.17853278 221:0.2333 222:0.2333 223:0.2333 224:0.2333 225:0.2333 226:0.2333 227:0.2333 228:0.2167 229:0.2167 230:0.2167 231:0.2333 232:0.2167 233:0.2167 234:0.2167 235:0.2167 236:0.2333 237:0.2167 238:0.2167 239:0.2333 240:0.2333 241:0.2167 242:0.2167 243:0.2333 244:0.2167 245:0.2167 246:0.2167 247:0.2167 248:0.2333 249:0.2333 250:0.2333 251:0.2333 252:0.2833 253:0.2667 254:0.2667 255:0.2667 256:0.2833 257:0.2833 258:0.2833 259:0.2833 260:0.3 261:0.3333 262:0.3333 263:0.3333 264:0.3333 265:0.3333 266:0.3333 267:0.3333 268:0.3333 269:0.3333 270:0.4 271:0.4 272:0.4 273:0.4 274:0.4 275:0.5667 276:0.95 277:0.95 278:1 279:1 280:1 281:1 282:0.3 283:0.2833 284:0.25 285:0.2333 286:0.2167 287:0.2 288:0.2 289:0.2 290:0.2 291:0.2 292:0.2 293:0.2 294:0.2 295:0.2167 296:0.2167 297:0.2 298:0.2 299:0.2167 300:0.2167 301:0.2 302:0.2 303:0.2 304:0.2167 305:0.2 306:0.2 307:0.2 308:0.2 309:0.2167 310:0.2167 311:0.2167 312:0.2167 313:0.2167 314:0.2167 315:0.2333 316:0.2333 317:0.2333 318:0.2667 319:0.2667 320:0.3 321:0.3 322:0.2833 323:0.3 324:0.3 325:0.2833 326:0.3 327:0.3 328:0.2833 329:0.3 330:0.3 331:0.2833 332:0.3 333:0.3 334:0.3 335:0.3 336:0.3 337:0.3167 338:0.3167 339:0.3 340:0.2667 341:0.2667 342:0.2667 343:0.2833 344:0.2667 345:0.2667 346:0.1333 347:0.1333 348:0.1333 349:0.1333 350:0.1333 351:0.1333 352:0.1333 353:0.1333 354:0.1333 355:0.1333 356:0.1333 357:0.1333 358:0.1333 359:0.1333 360:0.1333 
0.1681704381692252 1:0.2167 2:0.2167 3:0.2167 4:0.1833 5:0.1833 6:0.1833 7:0.1833 8:0.1833 9:0.1833 10:0.1833 11:0.1833 12:0.1833 13:0.1833 14:0.1833 15:0.1667 16:0.15 17:0.15 18:0.15 19:0.15 20:0.15 21:0.15 22:0.15 23:0.15 24:0.1 25:0.1 26:0.1167 27:0.1167 28:0.1167 29:0.1167 30:0.1167 31:0.1167 32:0.1167 33:0.1167 34:0.1167 35:0.1 36:0.1 37:0.1167 38:0.1167 39:0.1167 40:0.1167 41:0.1167 42:0.1167 43:0.1167 44:0.1167 45:0.1167 46:0.1167 47:0.1167 48:0.1167 49:0.1167 50:0.1167 51:0.1167 52:0.1167 53:0.1167 54:0.1167 55:0.1167 56:0.1 57:0.1 58:0.1167 59:0.1167 60:0.1167 61:0.1167 62:0.1167 63:0.1167 64:0.1167 65:0.1167 66:0.1167 67:0.1 68:0.1 69:0.5 70:0.4833 71:0.4833 72:0.4833 73:0.6667 74:0.6667 75:0.8333 76:0.8333 77:1 78:1 79:0.9667 80:0.9667 81:0.9667 82:0.9667 83:0.9667 84:0.9333 85:0.9333 86:0.8333 87:0.5167 88:0.5167 89:0.5167 90:0.45 91:0.45 92:0.45 93:0.4333 94:0.4333 95:0.4333 96:0.4333 97:0.4333 98:0.4333 99:0.4333 100:0.4333 101:0.4333 102:0.4333 103:0.35 104:0.35 105:0.35 106:0.35 107:0.35 108:0.35 109:0.35 110:0.35 111:0.35 112:0.35 113:0.35 114:0.35 115:0.35 116:0.35 117:0.35 118:0.35 119:0.45 120:0.45 121:0.45 122:0.4833 123:0.45 124:0.4833 125:0.45 126:0.45 127:0.45 128:0.35 129:0.35 130:0.35 131:0.35 132:0.35 133:0.35 134:0.35 135:0.35 136:0.35 137:0.35 138:0.35 139:0.35 140:0.35 141:0.35 142:0.33336842 143:0.33336842 144:0.33336842 145:0.33336842 146:0.33336842 147:0.33336842 148:0.33336842 149:0.33336842 150:0.33336842 151:0.33336842 152:0.33336842 153:0.33336842 154:0.33336842 155:0.33336842 156:0.33336842 157:0.33924764 158:0.35714056 159:0.37503348 160:0.39281926 161:0.6964632 162:0.7321419 163:0.7321419 164:0.87496384 165:0.85717806 166:0.85717806 167:0.87496384 168:1 169:1 170:1 171:1 172:1 173:1 174:1 175:1 176:0.98210708 177:0.98210708 178:0.98210708 179:0.87496384 180:0.87496384 181:0.67857028 182:0.67857028 183:0.67857028 184:0.48217672 185:0.48217672 186:0.48217672 187:0.48217672 188:0.48217672 189:0.26789024 190:0.28567602 191:0.28567602 192:0.160747 193:0.160747 194:0.160747 195:0.160747 196:0.160747 197:0.160747 198:0.160747 199:0.160747 200:0.160747 201:0.160747 202:0.14285408 203:0.14285408 204:0.14285408 205:0.14285408 206:0.14285408 207:0.14285408 208:0.14285408 209:0.14285408 210:0.14285408 211:0.14285408 212:0.14285408 213:0.14285408 214:0.14285408 215:0.14285408 216:0.14285408 217:0.14285408 218:0.14285408 219:0.14285408 220:0.14285408 221:0.1667 222:0.1667 223:0.1667 224:0.1667 225:0.1667 226:0.2 227:0.1667 228:0.1667 229:0.1667 230:0.1667 231:0.1667 232:0.1667 233:0.1667 234:0.1667 235:0.1833 236:0.1833 237:0.1667 238:0.1667 239:0.1667 240:0.1667 241:0.1667 242:0.1667 243:0.1667 244:0.1667 245:0.1667 246:0.1667 247:0.2833 248:0.2833 249:0.1833 250:0.1667 251:0.1667 252:0.2833 253:0.3 254:0.3167 255:0.4667 256:0.4667 257:0.4667 258:0.4667 259:0.4667 260:0.4833 261:0.65 262:0.9667 263:1 264:1 265:1 266:1 267:1 268:1 269:1 270:1 271:1 272:0.9833 273:0.9833 274:0.65 275:0.65 276:0.4833 277:0.4833 278:0.4833 279:0.4833 280:0.4833 281:0.4833 282:0.4833 283:0.35 284:0.35 285:0.35 286:0.35 287:0.35 288:0.35 289:0.35 290:0.35 291:0.35 292:0.35 293:0.35 294:0.35 295:0.35 296:0.3333 297:0.3167 298:0.2 299:0.2 300:0.2167 301:0.2167 302:0.2 303:0.2167 304:0.2167 305:0.2167 306:0.1833 307:0.1833 308:0.1833 309:0.1833 310:0.1833 311:0.1833 312:0.1833 313:0.1833 314:0.1833 315:0.1833 316:0.1833 317:0.1833 318:0.1833 319:0.1833 320:0.1833 321:0.1833 322:0.1833 323:0.1833 324:0.1833 325:0.1833 326:0.1833 327:0.1833 328:0.1833 329:0.1833 330:0.1833 331:0.1833 332:0.1833 333:0.1833 334:0.1833 335:0.1833 336:0.1833 337:0.1833 338:0.1833 339:0.2 340:0.2 341:0.1833 342:0.1833 343:0.1833 344:0.2 345:0.2 346:0.2 347:0.2 348:0.2 349:0.2 350:0.2 351:0.2 352:0.2 353:0.2 354:0.2 355:0.2 356:0.2 357:0.2 358:0.2 359:0.2167 360:0.2167 
0.02735137271749791 1:0.03333 2:0.03333 3:0.03333 4:0.03333 5:0.03333 6:0.03333 7:0.03333 8:0.03333 9:0.03333 10:0.03333 11:0.03333 12:0.03333 13:0.03333 14:0.03333 15:0.03333 16:0.03333 17:0.03333 18:0.03333 19:0.03333 20:0.03333 21:0.03333 22:0.03333 23:0.03333 24:0.03333 25:0.03333 26:0.03333 27:0.03333 28:0.03333 29:0.03333 30:0.03333 31:0.03333 32:0.03333 33:0.03333 34:0.03333 35:0.03333 36:0.01667 37:0.01667 38:0.01667 39:0.01667 40:0.01667 41:0.01667 42:0.01667 43:0.01667 44:0.01667 45:0.01667 46:0.01667 47:0.01667 48:0.01667 49:0.01667 50:0.01667 51:0.01667 52:0.01667 53:0.01667 54:0.01667 55:0.01667 56:0.01667 57:0.01667 58:0.01667 59:0.01667 60:0.01667 61:0.01667 62:0.01667 63:0.01667 64:0.01667 65:0.01667 66:0.01667 67:0.01667 68:0.01667 69:0.01667 70:0.01667 71:0.01667 72:0.01667 73:0.01667 74:0.35 75:0.3333 76:0.35 77:0.5167 78:0.5167 79:0.5167 80:0.6667 81:0.8833 82:0.9 83:1 84:0.8 85:0.8 86:0.8 87:0.8 88:0.8 89:0.8 90:0.7833 91:0.7833 92:0.6833 93:0.6833 94:0.55 95:0.55 96:0.55 97:0.4 98:0.35 99:0.35 100:0.3667 101:0.2333 102:0.2167 103:0.2167 104:0.2167 105:0.2167 106:0.2167 107:0.2 108:0.2 109:0.2 110:0.2 111:0.2 112:0.2 113:0.2 114:0.2 115:0.2167 116:0.2167 117:0.2 118:0.2 119:0.2167 120:0.2167 121:0.2 122:0.2 123:0.2 124:0.2167 125:0.2 126:0.2 127:0.2 128:0.2 129:0.2167 130:0.2167 131:0.2167 132:0.2667 133:0.25 134:0.25 135:0.25 136:0.25 137:0.25 138:0.25 139:0.25 140:0.25 141:0.25 142:0.21052632 143:0.22810526 144:0.22810526 145:0.35084211 146:0.33336842 147:0.33336842 148:0.35084211 149:0.36842105 150:0.36842105 151:0.36842105 152:0.386 153:0.36842105 154:0.28073684 155:0.28073684 156:0.28073684 157:0.26789024 158:0.26789024 159:0.26789024 160:0.26789024 161:0.26789024 162:0.26789024 163:0.26789024 164:0.26789024 165:0.26789024 166:0.26789024 167:0.26789024 168:0.30356894 169:0.30356894 170:0.30356894 171:0.30356894 172:0.30356894 173:0.30356894 174:0.30356894 175:0.30356894 176:0.30356894 177:0.30356894 178:0.30356894 179:0.30356894 180:0.35714056 181:0.35714056 182:0.35714056 183:1 184:1 185:1 186:1 187:0.9643213 188:0.94642838 189:0.94642838 190:0.94642838 191:0.94642838 192:0.94642838 193:0.94642838 194:0.75003482 195:0.75003482 196:0.75003482 197:0.75003482 198:0.75003482 199:0.75003482 200:0.57142704 201:0.57142704 202:0.57142704 203:0.57142704 204:0.57142704 205:0.57142704 206:0.57142704 207:0.57142704 208:0.57142704 209:0.51785542 210:0.39281926 211:0.37503348 212:0.39281926 213:0.37503348 214:0.39281926 215:0.37503348 216:0.28567602 217:0.28567602 218:0.28567602 219:0.28567602 220:0.28567602 221:0.35 222:0.3333 223:0.3333 224:0.3333 225:0.3333 226:0.3167 227:0.3333 228:0.2833 229:0.2833 230:0.2833 231:0.2833 232:0.2833 233:0.2833 234:0.2833 235:0.2833 236:0.2833 237:0.2833 238:0.2833 239:0.2833 240:0.2833 241:0.2833 242:0.2833 243:0.2833 244:0.2833 245:0.2833 246:0.3 247:0.3 248:0.3333 249:0.3333 250:0.3333 251:0.3333 252:0.3333 253:0.3833 254:0.35 255:0.3333 256:0.3833 257:0.3833 258:0.3833 259:0.3833 260:0.3833 261:0.8 262:0.8 263:0.9833 264:0.9833 265:0.9833 266:0.9833 267:1 268:1 269:1 270:1 271:1 272:0.8 273:0.8 274:0.6167 275:0.6167 276:0.4667 277:0.4667 278:0.4667 279:0.3 280:0.3167 281:0.3167 282:0.3167 283:0.2833 284:0.2833 285:0.2833 286:0.2833 287:0.2667 288:0.2667 289:0.2667 290:0.2833 291:0.2667 292:0.2667 293:0.2667 294:0.2667 295:0.2667 296:0.25 297:0.25 298:0.2667 299:0.2667 300:0.25 301:0.2667 302:0.2667 303:0.2667 304:0.2667 305:0.25 306:0.01667 307:0.01667 308:0.01667 309:0.01667 310:0.01667 311:0.01667 312:0.01667 313:0.01667 314:0.01667 315:0.01667 316:0.01667 317:0.01667 318:0.01667 319:0.01667 320:0.01667 321:0.01667 322:0.01667 323:0.01667 324:0.01667 325:0.01667 326:0.01667 327:0.01667 328:0.01667 329:0.01667 330:0.01667 331:0.01667 332:0.01667 333:0.01667 334:0.01667 335:0.01667 336:0.01667 337:0.01667 338:0.01667 339:0.01667 340:0.01667 341:0.01667 342:0.01667 343:0.01667 344:0.03333 345:0.03333 346:0.03333 347:0.03333 348:0.03333 349:0.03333 350:0.03333 351:0.03333 352:0.03333 353:0.03333 354:0.03333 355:0.03333 356:0.03333 357:0.03333 358:0.03333 359:0.03333 360:0.03333 
0.01952115546713023 1:0.4167 2:0.4167 3:0.4167 4:0.4167 5:0.4167 6:0.4167 7:0.4167 8:0.4167 9:0.4167 10:0.4167 11:0.4333 12:0.3 13:0.2833 14:0.2667 15:0.2667 16:0.2667 17:0.2667 18:0.2667 19:0.2667 20:0.2667 21:0.2667 22:0.25 23:0.25 24:0.25 25:0.25 26:0.25 27:0.25 28:0.2333 29:0.2333 30:0.2167 31:0.2167 32:0.2167 33:0.2 34:0.2 35:0.2 36:0.1833 37:0.1833 38:0.2 39:0.2 40:0.2 41:0.2 42:0.2 43:0.2 44:0.2 45:0.2 46:0.2 47:0.2 48:0.2 49:0.2 50:0.2 51:0.2 52:0.2 53:0.2 54:0.2 55:0.1833 56:0.1833 57:0.2 58:0.2 59:0.2 60:0.2167 61:0.2167 62:0.2167 63:0.2167 64:0.2167 65:0.2167 66:0.2167 67:0.2167 68:0.2167 69:0.2167 70:0.2167 71:0.2167 72:0.2833 73:0.2667 74:0.2667 75:0.2667 76:0.2833 77:0.2833 78:0.2833 79:0.2833 80:0.4333 81:0.4333 82:0.4333 83:0.4333 84:0.4333 85:0.4333 86:0.45 87:0.45 88:0.4667 89:1 90:1 91:1 92:1 93:1 94:1 95:1 96:0.9167 97:0.7833 98:0.6333 99:0.6333 100:0.6333 101:0.4333 102:0.4333 103:0.4333 104:0.4333 105:0.4333 106:0.4333 107:0.4333 108:0.4333 109:0.3 110:0.3 111:0.3 112:0.3 113:0.3 114:0.3 115:0.3 116:0.3 117:0.2833 118:0.08333 119:0.08333 120:0.08333 121:0.08333 122:0.08333 123:0.08333 124:0.08333 125:0.08333 126:0.08333 127:0.08333 128:0.08333 129:0.1 130:0.08333 131:0.08333 132:0.08333 133:0.08333 134:0.08333 135:0.08333 136:0.08333 137:0.1 138:0.1 139:0.1 140:0.08333 141:0.08333 142:0.035084211 143:0.035084211 144:0.035084211 145:0.035084211 146:0.052631579 147:0.052631579 148:0.052631579 149:0.035084211 150:0.035084211 151:0.035084211 152:0.035084211 153:0.035084211 154:0.035084211 155:0.035084211 156:0.035084211 157:0.017850064 158:0.017850064 159:0.017850064 160:0.017850064 161:0.017850064 162:0.017850064 163:0.017850064 164:0.017850064 165:0.017850064 166:0.035710842 167:0.035710842 168:0.035710842 169:0.053603763 170:0.053603763 171:0.035710842 172:0.035710842 173:0.035710842 174:0.035710842 175:0.035710842 176:0.035710842 177:0.053603763 178:0.089282462 179:0.089282462 180:0.089282462 181:0.089282462 182:0.089282462 183:0.089282462 184:0.089282462 185:0.089282462 186:0.089282462 187:0.089282462 188:0.089282462 189:0.089282462 190:0.089282462 191:0.089282462 192:0.089282462 193:0.089282462 194:0.089282462 195:0.089282462 196:0.089282462 197:0.089282462 198:0.089282462 199:0.089282462 200:0.089282462 201:0.12496116 202:0.12496116 203:0.1964257 204:0.1964257 205:0.21431862 206:0.21431862 207:0.2321044 208:0.2321044 209:0.2321044 210:0.2321044 211:0.12496116 212:0.12496116 213:0.10717538 214:0.10717538 215:0.10717538 216:0.10717538 217:0.10717538 218:0.10717538 219:0.10717538 220:0.10717538 221:0.1667 222:0.1667 223:0.1667 224:0.1667 225:0.1667 226:0.1667 227:0.1667 228:0.1667 229:0.1667 230:0.1667 231:0.1667 232:0.1667 233:0.1667 234:0.1667 235:0.1667 236:0.1667 237:0.1667 238:0.1667 239:0.1667 240:0.1833 241:0.1833 242:0.3 243:0.3 244:0.3 245:0.3 246:0.3 247:0.3 248:0.3 249:0.3 250:0.3 251:0.3 252:0.3 253:0.3 254:0.4167 255:0.4167 256:0.4167 257:0.4167 258:0.4167 259:0.4333 260:0.55 261:0.55 262:0.6833 263:0.6833 264:0.75 265:1 266:1 267:1 268:1 269:1 270:1 271:0.5833 272:0.5833 273:0.5833 274:0.5833 275:0.5833 276:0.5833 277:0.4167 278:0.4167 279:0.4167 280:0.4167 281:0.2333 282:0.2333 283:0.2333 284:0.2333 285:0.2333 286:0.2333 287:0.2333 288:0.2333 289:0.2333 290:0.2333 291:0.2333 292:0.2333 293:0.2333 294:0.2333 295:0.2333 296:0.2333 297:0.2333 298:0.2333 299:0.2333 300:0.2167 301:0.2167 302:0.2167 303:0.2167 304:0.2167 305:0.2167 306:0.2167 307:0.2167 308:0.2167 309:0.2167 310:0.2167 311:0.2167 312:0.2167 313:0.2167 314:0.2167 315:0.2167 316:0.2167 317:0.2167 318:0.2167 319:0.2167 320:0.2167 321:0.2167 322:0.2167 323:0.2167 324:0.2167 325:0.2167 326:0.2167 327:0.2167 328:0.2167 329:0.2167 330:0.2167 331:0.2167 332:0.2167 333:0.3667 334:0.3667 335:0.3667 336:0.3667 337:0.3667 338:0.3667 339:0.4333 340:0.4333 341:0.4333 342:0.4333 343:0.4333 344:0.4333 345:0.45 346:0.4833 347:0.5333 348:0.55 349:0.55 350:0.5667 351:0.5667 352:1 353:1 354:1 355:1 356:1 357:1 358:0.4333 359:0.4333 360:0.4167 
1.121679920396747 1:0.5167 2:0.5167 3:0.5167 4:0.5333 5:0.5333 6:0.5333 7:0.5333 8:0.5833 9:1 10:1 11:1 12:1 13:1 14:1 15:1 16:1 17:1 18:1 19:1 20:1 21:0.7 22:0.7 23:0.6833 24:0.6833 25:0.6833 26:0.6833 27:0.6833 28:0.6833 29:0.6833 30:1 31:1 32:1 33:1 34:1 35:1 36:1 37:0.2667 38:0.2667 39:0.2667 40:0.2667 41:0.2667 42:0.2667 43:0.2667 44:0.2667 45:0.2667 46:0.2667 47:0.2667 48:0.2667 49:0.2667 50:0.2333 51:0.2333 52:0.2333 53:0.2333 54:0.2333 55:0.2167 56:0.2333 57:0.2333 58:0.2333 59:0.2333 60:0.2333 61:0.2333 62:0.2333 63:0.2333 64:0.2333 65:0.2333 66:0.2333 67:0.2333 68:0.2333 69:0.2333 70:0.2333 71:0.2333 72:0.2333 73:0.2333 74:0.4167 75:0.4333 76:0.4167 77:0.3333 78:0.3333 79:0.3333 80:0.3333 81:0.3333 82:0.3333 83:0.3333 84:0.3333 85:0.3333 86:0.2667 87:0.2667 88:0.2667 89:0.2667 90:0.2667 91:0.2667 92:0.2667 93:0.2667 94:0.2667 95:0.2667 96:0.2667 97:0.2667 98:0.2667 99:0.2667 100:0.2667 101:0.2667 102:0.2667 103:0.2833 104:0.2833 105:0.2833 106:0.3 107:0.3 108:0.45 109:0.45 110:0.45 111:0.45 112:0.45 113:0.5833 114:0.5833 115:0.5833 116:0.7833 117:0.7 118:0.8833 119:1 120:1 121:1 122:1 123:1 124:1 125:1 126:1 127:1 128:0.85 129:0.7333 130:0.7333 131:0.5833 132:0.5667 133:0.5167 134:0.5167 135:0.35 136:0.3167 137:0.3333 138:0.25 139:0.25 140:0.2333 141:0.2333 142:0.19294737 143:0.19294737 144:0.19294737 145:0.19294737 146:0.19294737 147:0.19294737 148:0.19294737 149:0.19294737 150:0.19294737 151:0.19294737 152:0.19294737 153:0.19294737 154:0.19294737 155:0.19294737 156:0.19294737 157:0.17853278 158:0.17853278 159:0.1964257 160:0.1964257 161:0.21431862 162:0.1964257 163:0.1964257 164:0.17853278 165:0.17853278 166:0.17853278 167:0.17853278 168:0.17853278 169:0.17853278 170:0.17853278 171:0.17853278 172:0.17853278 173:0.17853278 174:0.17853278 175:0.17853278 176:0.17853278 177:0.17853278 178:0.17853278 179:0.17853278 180:0.17853278 181:0.17853278 182:0.17853278 183:0.17853278 184:0.089282462 185:0.089282462 186:0.089282462 187:0.089282462 188:0.089282462 189:0.089282462 190:0.089282462 191:0.089282462 192:0.089282462 193:0.089282462 194:0.089282462 195:0.10717538 196:0.089282462 197:0.089282462 198:0.089282462 199:0.089282462 200:0.10717538 201:0.10717538 202:0.089282462 203:0.089282462 204:0.089282462 205:0.089282462 206:0.10717538 207:0.089282462 208:0.089282462 209:0.089282462 210:0.089282462 211:0.089282462 212:0.089282462 213:0.089282462 214:0.10717538 215:0.10717538 216:0.1964257 217:0.1964257 218:0.1964257 219:0.1964257 220:0.1964257 221:0.25 222:0.25 223:0.25 224:0.2667 225:0.25 226:0.25 227:0.25 228:0.2667 229:0.2667 230:0.2667 231:0.2833 232:0.2833 233:0.2833 234:0.3 235:0.3 236:0.3 237:0.2333 238:0.2333 239:0.2333 240:0.2333 241:0.2333 242:0.2333 243:0.2333 244:0.2333 245:0.2333 246:0.2333 247:0.2333 248:0.2333 249:0.2333 250:0.2333 251:0.2333 252:0.2333 253:0.2333 254:0.2333 255:0.2333 256:0.2333 257:0.2333 258:0.35 259:0.35 260:0.3667 261:0.3667 262:0.3667 263:1 264:1 265:1 266:1 267:1 268:1 269:1 270:1 271:1 272:1 273:1 274:1 275:1 276:1 277:1 278:1 279:1 280:1 281:1 282:1 283:1 284:1 285:0.8667 286:0.8667 287:0.5667 288:0.55 289:0.4 290:0.3833 291:0.3833 292:0.3833 293:0.3833 294:0.3833 295:0.3833 296:0.3833 297:0.3833 298:0.3833 299:0.3667 300:0.3667 301:0.3667 302:0.3667 303:0.3667 304:0.3667 305:0.3667 306:0.3667 307:0.35 308:0.35 309:0.2833 310:0.2833 311:0.2833 312:0.2667 313:0.2833 314:0.2833 315:0.2667 316:0.2833 317:0.2833 318:0.2833 319:0.2833 320:0.2833 321:0.2833 322:0.2833 323:0.2833 324:0.2333 325:0.2167 326:0.2167 327:0.2167 328:0.2167 329:0.2167 330:0.2167 331:0.2167 332:0.2167 333:0.2167 334:0.2167 335:0.2167 336:0.2167 337:0.2167 338:0.2167 339:0.2167 340:0.2167 341:0.2167 342:0.2167 343:0.2167 344:0.2167 345:0.2167 346:0.2167 347:0.2167 348:0.2167 349:0.2167 350:0.2167 351:0.2333 352:1 353:0.5167 354:0.5167 355:0.5167 356:0.5167 357:0.5167 358:0.5167 359:0.5167 360:0.5167 
0.3927186106688205 1:0.5167 2:0.5167 3:0.5167 4:0.55 5:0.55 6:1 7:1 8:1 9:1 10:1 11:1 12:1 13:1 14:1 15:1 16:1 17:0.8167 18:0.8167 19:0.6667 20:0.6667 21:0.6667 22:0.6667 23:0.6667 24:0.6667 25:0.6667 26:0.6667 27:0.6667 28:1 29:1 30:1 31:1 32:1 33:0.8 34:0.5333 35:0.25 36:0.25 37:0.25 38:0.25 39:0.25 40:0.25 41:0.25 42:0.25 43:0.25 44:0.25 45:0.25 46:0.25 47:0.25 48:0.25 49:0.25 50:0.25 51:0.2167 52:0.2167 53:0.2167 54:0.2167 55:0.2167 56:0.2167 57:0.2167 58:0.2167 59:0.2167 60:0.2167 61:0.2167 62:0.2167 63:0.2167 64:0.2167 65:0.2167 66:0.2167 67:0.2167 68:0.2167 69:0.2167 70:0.2167 71:0.2167 72:0.3833 73:0.4 74:0.4167 75:0.4167 76:0.4167 77:0.4167 78:0.4167 79:0.4333 80:0.4333 81:0.4333 82:0.4833 83:0.4833 84:0.4833 85:0.4833 86:0.2667 87:0.2667 88:0.2667 89:0.2667 90:0.2667 91:0.2667 92:0.2667 93:0.2667 94:0.2667 95:0.2667 96:0.2667 97:0.2667 98:0.2667 99:0.2667 100:0.2667 101:0.2667 102:0.2667 103:0.2667 104:0.2667 105:0.2667 106:0.2667 107:0.3 108:0.45 109:0.45 110:0.45 111:0.45 112:0.45 113:0.5833 114:0.5833 115:0.7667 116:0.7833 117:0.8667 118:1 119:1 120:1 121:1 122:1 123:1 124:1 125:1 126:1 127:0.75 128:0.75 129:0.75 130:0.5667 131:0.5667 132:0.55 133:0.55 134:0.5 135:0.5 136:0.5 137:0.4333 138:0.4333 139:0.4333 140:0.3667 141:0.25 142:0.21052632 143:0.21052632 144:0.21052632 145:0.21052632 146:0.21052632 147:0.21052632 148:0.21052632 149:0.21052632 150:0.21052632 151:0.21052632 152:0.21052632 153:0.21052632 154:0.21052632 155:0.21052632 156:0.21052632 157:0.1964257 158:0.1964257 159:0.1964257 160:0.1964257 161:0.21431862 162:0.21431862 163:0.21431862 164:0.21431862 165:0.21431862 166:0.21431862 167:0.21431862 168:0.21431862 169:0.1964257 170:0.1964257 171:0.1964257 172:0.1964257 173:0.1964257 174:0.1964257 175:0.1964257 176:0.1964257 177:0.1964257 178:0.1964257 179:0.1964257 180:0.1964257 181:0.1964257 182:0.1964257 183:0.1964257 184:0.1964257 185:0.1964257 186:0.1964257 187:0.1964257 188:0.1964257 189:0.10717538 190:0.10717538 191:0.12496116 192:0.12496116 193:0.12496116 194:0.12496116 195:0.12496116 196:0.12496116 197:0.12496116 198:0.12496116 199:0.12496116 200:0.12496116 201:0.12496116 202:0.12496116 203:0.12496116 204:0.12496116 205:0.12496116 206:0.12496116 207:0.12496116 208:0.12496116 209:0.12496116 210:0.10717538 211:0.10717538 212:0.12496116 213:0.12496116 214:0.12496116 215:0.12496116 216:0.12496116 217:0.12496116 218:0.21431862 219:0.21431862 220:0.24999732 221:0.2833 222:0.2833 223:0.3 224:0.2833 225:0.2833 226:0.3 227:0.2833 228:0.2833 229:0.2833 230:0.3 231:0.3 232:0.3 233:0.25 234:0.25 235:0.25 236:0.25 237:0.25 238:0.25 239:0.25 240:0.25 241:0.25 242:0.25 243:0.25 244:0.25 245:0.25 246:0.25 247:0.25 248:0.25 249:0.25 250:0.25 251:0.3667 252:0.3667 253:0.3667 254:0.3667 255:0.3667 256:0.3667 257:0.3667 258:1 259:1 260:1 261:1 262:1 263:1 264:1 265:1 266:1 267:1 268:1 269:1 270:1 271:1 272:1 273:1 274:1 275:0.6667 276:0.6667 277:0.65 278:0.65 279:0.65 280:0.65 281:0.65 282:0.65 283:0.55 284:0.4 285:0.3833 286:0.3833 287:0.3833 288:0.3833 289:0.3833 290:0.3833 291:0.3833 292:0.3833 293:0.3833 294:0.3667 295:0.3667 296:0.3667 297:0.3667 298:0.3667 299:0.3667 300:0.3667 301:0.3667 302:0.2833 303:0.2667 304:0.2667 305:0.2667 306:0.2667 307:0.2667 308:0.2667 309:0.2667 310:0.2667 311:0.2167 312:0.2167 313:0.2167 314:0.2167 315:0.2167 316:0.2 317:0.2 318:0.2 319:0.2 320:0.2 321:0.2 322:0.2 323:0.2 324:0.2 325:0.2 326:0.2 327:0.2 328:0.2 329:0.2 330:0.2 331:0.2 332:0.2 333:0.2 334:0.2 335:0.2 336:0.2 337:0.2 338:0.2 339:0.2 340:0.2 341:0.2167 342:1 343:1 344:1 345:1 346:0.5167 347:0.5 348:0.5 349:0.5 350:0.5 351:0.5 352:0.5 353:0.5 354:0.5 355:0.5 356:0.5 357:0.5 358:0.5 359:0.5167 360:0.5167 
0.5590978160550186 1:0.1333 2:0.1333 3:0.1333 4:0.1333 5:0.1333 6:0.1333 7:0.1333 8:0.1333 9:0.1333 10:0.1333 11:0.1333 12:0.1333 13:0.1333 14:0.1333 15:0.1333 16:0.1333 17:0.1333 18:0.1333 19:0.1333 20:0.1333 21:0.1333 22:0.1333 23:0.1333 24:0.1333 25:0.1333 26:0.1333 27:0.1333 28:0.1333 29:0.1333 30:0.3333 31:0.3333 32:0.3333 33:0.3333 34:0.2333 35:0.2333 36:0.2167 37:0.2167 38:0.2167 39:0.2167 40:0.2167 41:0.2167 42:0.2167 43:0.2167 44:0.2167 45:0.2167 46:0.2167 47:0.2167 48:0.2167 49:0.2167 50:0.2167 51:0.2167 52:0.2167 53:0.2167 54:0.2167 55:0.2167 56:0.2167 57:0.2333 58:0.2333 59:0.35 60:0.35 61:0.35 62:0.35 63:0.35 64:0.35 65:0.35 66:0.35 67:0.35 68:0.35 69:0.35 70:0.35 71:0.3833 72:0.3833 73:0.3833 74:0.3833 75:0.3833 76:0.6167 77:0.6167 78:0.75 79:0.75 80:0.75 81:1 82:1 83:1 84:1 85:1 86:1 87:1 88:1 89:1 90:0.45 91:0.45 92:0.45 93:0.25 94:0.25 95:0.25 96:0.25 97:0.25 98:0.25 99:0.25 100:0.25 101:0.25 102:0.25 103:0.25 104:0.25 105:0.2333 106:0.2333 107:0.2333 108:0.2333 109:0.2333 110:0.2333 111:0.2333 112:0.2333 113:0.2333 114:0.2333 115:0.2333 116:0.2333 117:0.2333 118:0.2333 119:0.2333 120:0.2333 121:0.2333 122:0.2333 123:0.2333 124:0.2333 125:0.2333 126:0.2333 127:0.2167 128:0.2333 129:0.2333 130:0.2333 131:0.2333 132:0.2333 133:0.2333 134:0.2333 135:0.2333 136:0.2333 137:0.2333 138:0.2333 139:0.2333 140:0.25 141:0.25 142:0.21052632 143:0.21052632 144:0.21052632 145:0.21052632 146:0.21052632 147:0.21052632 148:0.21052632 149:0.21052632 150:0.21052632 151:0.21052632 152:0.31578947 153:0.21052632 154:0.21052632 155:0.36842105 156:0.22810526 157:0.21431862 158:0.35714056 159:0.35714056 160:0.35714056 161:0.35714056 162:0.35714056 163:0.35714056 164:0.4999625 165:0.4999625 166:0.51785542 167:0.62499866 168:0.60710574 169:0.7321419 170:0.91074968 171:0.91074968 172:0.92853546 173:1 174:1 175:1 176:1 177:1 178:1 179:1 180:0.33924764 181:0.33924764 182:0.33924764 183:0.17853278 184:0.17853278 185:0.17853278 186:0.17853278 187:0.17853278 188:0.17853278 189:0.17853278 190:0.17853278 191:0.17853278 192:0.17853278 193:0.17853278 194:0.12496116 195:0.12496116 196:0.12496116 197:0.12496116 198:0.12496116 199:0.12496116 200:0.12496116 201:0.10717538 202:0.10717538 203:0.089282462 204:0.089282462 205:0.089282462 206:0.071389541 207:0.071389541 208:0.071389541 209:0.071389541 210:0.071389541 211:0.071389541 212:0.071389541 213:0.071389541 214:0.071389541 215:0.071389541 216:0.071389541 217:0.071389541 218:0.071389541 219:0.071389541 220:0.071389541 221:0.1333 222:0.1333 223:0.1333 224:0.1333 225:0.1333 226:0.1333 227:0.1333 228:0.1333 229:0.1333 230:0.1333 231:0.1333 232:0.1333 233:0.1333 234:0.1333 235:0.1333 236:0.1333 237:0.1333 238:0.1333 239:0.15 240:0.15 241:0.15 242:0.15 243:0.15 244:0.15 245:0.15 246:0.15 247:0.15 248:0.15 249:0.15 250:0.15 251:0.15 252:0.15 253:0.15 254:0.15 255:0.15 256:0.15 257:0.1667 258:0.2167 259:0.2 260:0.2167 261:0.2167 262:0.2 263:0.2 264:0.2 265:0.3333 266:0.3333 267:0.35 268:0.3833 269:0.3833 270:1 271:1 272:0.55 273:0.55 274:0.55 275:0.55 276:0.5333 277:0.5333 278:0.5333 279:0.5333 280:0.5333 281:0.5333 282:0.5333 283:0.5333 284:0.5333 285:0.6 286:0.6 287:0.4167 288:0.5833 289:0.4167 290:0.4167 291:0.4167 292:0.4167 293:0.4167 294:0.4167 295:0.3833 296:0.3833 297:0.3833 298:0.3833 299:0.3667 300:0.3667 301:0.35 302:0.35 303:0.35 304:0.35 305:0.35 306:0.35 307:0.35 308:0.35 309:0.35 310:0.35 311:0.35 312:0.35 313:0.35 314:0.4333 315:0.4333 316:0.1667 317:0.15 318:0.1667 319:0.1667 320:0.1667 321:0.1667 322:0.1667 323:0.1667 324:0.1667 325:0.1667 326:0.1667 327:0.1667 328:0.1667 329:0.1667 330:0.1667 331:0.1667 332:0.1667 333:0.1667 334:0.1667 335:0.1667 336:0.1667 337:0.1667 338:0.1667 339:0.15 340:0.1667 341:0.1667 342:0.15 343:0.15 344:0.15 345:0.15 346:0.15 347:0.15 348:0.15 349:0.15 350:0.15 351:0.15 352:0.1333 353:0.1333 354:0.1333 355:0.1333 356:0.1333 357:0.1333 358:0.1333 359:0.1333 360:0.1333 
0.2424910957736602 1:0.3833 2:0.3833 3:0.3833 4:0.3833 5:0.1167 6:0.1167 7:0.1167 8:0.1167 9:0.1167 10:0.1167 11:0.1167 12:0.1167 13:0.1167 14:0.1167 15:0.1167 16:0.1333 17:0.1333 18:0.4 19:0.4 20:0.1167 21:0.1167 22:0.1333 23:0.1333 24:0.4 25:0.3 26:0.3167 27:0.1167 28:0.1167 29:0.1167 30:0.1333 31:0.3167 32:0.3 33:0.1167 34:0.1167 35:0.1167 36:0.1167 37:0.1167 38:0.1167 39:0.1167 40:0.2 41:0.2 42:0.2 43:0.2 44:0.2 45:0.2 46:0.2 47:0.2 48:0.2 49:0.2 50:0.2 51:0.2 52:0.2 53:0.2 54:0.2 55:0.1833 56:0.1833 57:0.3167 58:0.3167 59:0.3167 60:0.3167 61:0.3167 62:0.3167 63:0.3167 64:0.3167 65:0.3167 66:0.3167 67:0.3167 68:0.3167 69:0.3167 70:0.3167 71:0.3167 72:0.3333 73:0.45 74:0.4667 75:0.45 76:0.45 77:0.45 78:0.5833 79:0.6 80:0.7167 81:0.7167 82:1 83:1 84:1 85:1 86:1 87:1 88:1 89:1 90:1 91:1 92:0.7833 93:0.7833 94:0.6 95:0.4333 96:0.4333 97:0.2333 98:0.2333 99:0.2333 100:0.2333 101:0.2333 102:0.2333 103:0.25 104:0.25 105:0.2333 106:0.25 107:0.25 108:0.25 109:0.2333 110:0.2333 111:0.2333 112:0.2333 113:0.2333 114:0.2333 115:0.2167 116:0.2167 117:0.2167 118:0.2167 119:0.2333 120:0.2167 121:0.2167 122:0.2167 123:0.2167 124:0.2167 125:0.2167 126:0.2167 127:0.2167 128:0.2167 129:0.2167 130:0.2167 131:0.2167 132:0.2167 133:0.2167 134:0.2167 135:0.2167 136:0.2167 137:0.2167 138:0.2167 139:0.2167 140:0.2167 141:0.2167 142:0.19294737 143:0.19294737 144:0.19294737 145:0.21052632 146:0.21052632 147:0.21052632 148:0.22810526 149:0.22810526 150:0.22810526 151:0.22810526 152:0.22810526 153:0.22810526 154:0.28073684 155:0.28073684 156:0.29821053 157:0.30356894 158:0.32146186 159:0.33924764 160:0.35714056 161:0.37503348 162:0.37503348 163:0.37503348 164:0.37503348 165:0.37503348 166:0.37503348 167:0.37503348 168:0.37503348 169:0.58931996 170:0.62499866 171:0.6964632 172:0.78571352 173:0.89285676 174:0.9643213 175:1 176:1 177:0.75003482 178:0.75003482 179:0.75003482 180:0.75003482 181:0.75003482 182:0.53574834 183:0.1964257 184:0.1964257 185:0.1964257 186:0.1964257 187:0.17853278 188:0.17853278 189:0.17853278 190:0.17853278 191:0.17853278 192:0.17853278 193:0.1964257 194:0.1964257 195:0.17853278 196:0.1964257 197:0.14285408 198:0.14285408 199:0.14285408 200:0.14285408 201:0.14285408 202:0.14285408 203:0.14285408 204:0.12496116 205:0.12496116 206:0.12496116 207:0.10717538 208:0.10717538 209:0.10717538 210:0.089282462 211:0.089282462 212:0.089282462 213:0.10717538 214:0.10717538 215:0.10717538 216:0.089282462 217:0.089282462 218:0.10717538 219:0.10717538 220:0.10717538 221:0.1667 222:0.15 223:0.1667 224:0.1667 225:0.1667 226:0.1667 227:0.1667 228:0.15 229:0.1667 230:0.1667 231:0.1667 232:0.15 233:0.15 234:0.15 235:0.1667 236:0.1667 237:0.1667 238:0.1667 239:0.1667 240:0.1833 241:0.1667 242:0.1833 243:0.2 244:0.1833 245:0.1833 246:0.1667 247:0.2333 248:0.2333 249:0.1833 250:0.1667 251:0.1667 252:0.2333 253:0.2333 254:0.2333 255:0.2333 256:0.2333 257:0.2333 258:0.2333 259:0.2333 260:0.2333 261:0.2333 262:0.3667 263:0.3833 264:0.3667 265:0.4 266:0.55 267:0.7 268:0.8333 269:1 270:1 271:1 272:1 273:1 274:1 275:1 276:1 277:0.9167 278:0.7667 279:0.7667 280:0.7667 281:0.6167 282:0.6167 283:0.6167 284:0.6167 285:0.5833 286:0.5833 287:0.5667 288:0.5333 289:0.5167 290:0.4833 291:0.4667 292:0.4333 293:0.2833 294:0.2833 295:0.2667 296:0.2667 297:0.2833 298:0.2667 299:0.2667 300:0.2833 301:0.2833 302:0.2667 303:0.2833 304:0.2833 305:0.2667 306:0.2833 307:0.2833 308:0.2667 309:0.2667 310:0.25 311:0.1667 312:0.1667 313:0.1667 314:0.1667 315:0.1667 316:0.25 317:0.1667 318:0.1667 319:0.1667 320:0.2333 321:0.2333 322:0.1667 323:0.1667 324:0.1667 325:0.2333 326:0.2333 327:0.1667 328:0.1667 329:0.1667 330:0.1667 331:0.1667 332:0.1667 333:0.1667 334:0.1667 335:0.1667 336:0.2333 337:0.2333 338:0.2333 339:0.2333 340:0.2333 341:0.2333 342:0.2333 343:0.2333 344:0.2333 345:0.2333 346:0.2333 347:0.2333 348:0.25 349:0.3167 350:0.3167 351:0.3167 352:0.3167 353:0.3167 354:0.3167 355:0.3167 356:0.3167 357:0.3833 358:0.3833 359:0.3833 360:0.3833 
0.1791208155313824 1:1 2:1 3:1 4:1 5:1 6:1 7:1 8:1 9:1 10:1 11:1 12:1 13:0.5167 14:0.5167 15:0.5167 16:0.5167 17:0.5 18:0.3833 19:0.3833 20:0.3833 21:0.3833 22:0.3833 23:0.3833 24:0.3833 25:0.3833 26:0.3833 27:0.3833 28:0.3833 29:0.5167 30:0.5 31:0.5 32:0.3333 33:0.3333 34:0.3167 35:0.2833 36:0.2833 37:0.3167 38:0.2833 39:0.2833 40:0.2833 41:0.2833 42:0.2833 43:0.2833 44:0.2833 45:0.2833 46:0.2833 47:0.2667 48:0.2667 49:0.2667 50:0.2667 51:0.2667 52:0.2667 53:0.2667 54:0.15 55:0.15 56:0.1333 57:0.1333 58:0.1333 59:0.1333 60:0.1333 61:0.1333 62:0.1333 63:0.15 64:0.15 65:0.1333 66:0.1333 67:0.1333 68:0.1333 69:0.15 70:0.15 71:0.15 72:0.1333 73:0.1333 74:0.1333 75:0.15 76:0.15 77:0.15 78:0.1333 79:0.1333 80:0.1333 81:0.1333 82:0.1333 83:0.1333 84:0.1333 85:0.1333 86:0.1333 87:0.1333 88:0.1333 89:0.1333 90:0.1333 91:0.1333 92:0.1333 93:0.1333 94:0.1333 95:0.1333 96:0.08333 97:0.08333 98:0.08333 99:0.08333 100:0.08333 101:0.08333 102:0.08333 103:0.1 104:0.1 105:0.1 106:0.08333 107:0.1 108:0.1 109:0.1 110:0.1 111:0.1 112:0.1 113:0.1 114:0.1 115:0.1 116:0.1 117:0.1 118:0.1 119:0.1 120:0.1 121:0.1 122:0.1 123:0.1 124:0.1 125:0.08333 126:0.1 127:0.1 128:0.1 129:0.1 130:0.1 131:0.1 132:0.1 133:0.08333 134:0.08333 135:0.08333 136:0.08333 137:0.08333 138:0.08333 139:0.08333 140:0.1 141:0.1 142:0.052631579 143:0.052631579 144:0.052631579 145:0.052631579 146:0.070210526 147:0.070210526 148:0.070210526 149:0.070210526 150:0.070210526 151:0.070210526 152:0.070210526 153:0.070210526 154:0.070210526 155:0.070210526 156:0.070210526 157:0.035710842 158:0.035710842 159:0.053603763 160:0.053603763 161:0.053603763 162:0.053603763 163:0.053603763 164:0.053603763 165:0.053603763 166:0.053603763 167:0.053603763 168:0.053603763 169:0.053603763 170:0.071389541 171:0.071389541 172:0.089282462 173:0.89285676 174:0.89285676 175:1 176:1 177:1 178:1 179:1 180:1 181:0.7321419 182:0.7321419 183:0.71424898 184:0.71424898 185:0.71424898 186:0.51785542 187:0.51785542 188:0.51785542 189:0.51785542 190:0.51785542 191:0.51785542 192:0.51785542 193:0.51785542 194:0.71424898 195:0.71424898 196:0.57142704 197:0.57142704 198:0.57142704 199:0.57142704 200:0.57142704 201:0.57142704 202:0.57142704 203:0.57142704 204:0.57142704 205:0.57142704 206:0.64289158 207:0.64289158 208:0.64289158 209:0.58931996 210:0.28567602 211:0.28567602 212:0.28567602 213:0.28567602 214:0.28567602 215:0.28567602 216:0.28567602 217:0.28567602 218:0.28567602 219:0.14285408 220:0.14285408 221:0.2 222:0.2 223:0.1833 224:0.2 225:0.2 226:0.2 227:0.2 228:0.2 229:0.2 230:0.2 231:0.2 232:0.2 233:0.2 234:0.2 235:0.2 236:0.2 237:0.2 238:0.2 239:0.2 240:0.2 241:0.2 242:0.1833 243:0.2 244:0.2 245:0.2167 246:0.2167 247:0.2167 248:0.2167 249:0.2167 250:0.2167 251:0.2167 252:0.2167 253:0.2167 254:0.2167 255:0.2167 256:0.2167 257:0.2167 258:0.2167 259:0.2167 260:0.2167 261:0.2333 262:0.2167 263:0.2167 264:0.2167 265:0.3167 266:0.3167 267:0.5833 268:0.5833 269:0.75 270:1 271:1 272:1 273:1 274:1 275:1 276:1 277:0.9333 278:0.7833 279:0.6 280:0.4667 281:0.4667 282:0.4667 283:0.3667 284:0.3667 285:0.3667 286:0.3667 287:0.3667 288:0.3667 289:0.3667 290:0.3667 291:0.2667 292:0.25 293:0.25 294:0.2333 295:0.2167 296:0.2167 297:0.1667 298:0.1667 299:0.1667 300:0.15 301:0.15 302:0.15 303:0.1667 304:0.1667 305:0.1667 306:0.15 307:0.15 308:0.1667 309:0.1667 310:0.1667 311:0.1667 312:0.15 313:0.1667 314:0.1667 315:0.1667 316:0.1667 317:0.1667 318:0.15 319:0.1667 320:0.1667 321:0.1667 322:0.15 323:0.15 324:0.15 325:0.1667 326:0.1667 327:0.1667 328:0.1667 329:0.1667 330:0.2167 331:0.2167 332:0.2167 333:0.2833 334:0.2833 335:0.2833 336:1 337:1 338:1 339:1 340:1 341:1 342:1 343:1 344:1 345:1 346:1 347:1 348:1 349:1 350:1 351:1 352:1 353:1 354:1 355:1 356:1 357:1 358:1 359:1 360:1 
0.9451452458578892 1:0.1333 2:0.1333 3:0.1333 4:0.1333 5:0.4333 6:0.4333 7:0.4333 8:0.4333 9:0.4167 10:0.4167 11:0.4167 12:0.4167 13:0.4167 14:0.4167 15:0.4167 16:0.4167 17:0.3833 18:0.25 19:0.2333 20:0.2333 21:0.2167 22:0.2167 23:0.2167 24:0.2167 25:0.2167 26:0.2167 27:0.2167 28:0.2 29:0.2 30:0.2167 31:0.2167 32:0.2 33:0.2167 34:0.2167 35:0.2167 36:0.2167 37:0.2 38:0.2167 39:0.2167 40:0.2167 41:0.2 42:0.2167 43:0.2167 44:0.2167 45:0.2 46:0.2 47:0.2667 48:0.2667 49:0.2667 50:0.2667 51:0.2667 52:0.2667 53:0.2667 54:0.2667 55:0.2667 56:0.2667 57:0.2667 58:0.2667 59:0.2667 60:0.3167 61:0.3167 62:0.3167 63:0.3167 64:0.3167 65:0.3167 66:0.3333 67:0.3333 68:0.3167 69:0.3333 70:0.4 71:0.4 72:0.4 73:0.4 74:0.4167 75:0.5833 76:0.5833 77:0.5833 78:0.5833 79:0.5833 80:0.5833 81:0.7833 82:0.7833 83:0.7833 84:0.7833 85:0.9667 86:0.9667 87:1 88:1 89:1 90:1 91:1 92:1 93:1 94:1 95:1 96:1 97:1 98:0.5167 99:0.5333 100:0.3833 101:0.2333 102:0.2167 103:0.2167 104:0.2167 105:0.2167 106:0.2167 107:0.2167 108:0.2167 109:0.2167 110:0.2167 111:0.2167 112:0.2167 113:0.2167 114:0.2167 115:0.2167 116:0.2167 117:0.2167 118:0.2167 119:0.2167 120:0.2167 121:0.2167 122:0.2167 123:0.2167 124:0.2167 125:0.2167 126:0.2167 127:0.1 128:0.1 129:0.1 130:0.1 131:0.1 132:0.1 133:0.08333 134:0.08333 135:0.08333 136:0.08333 137:0.08333 138:0.08333 139:0.08333 140:0.08333 141:0.08333 142:0.035084211 143:0.035084211 144:0.035084211 145:0.035084211 146:0.035084211 147:0.035084211 148:0.035084211 149:0.035084211 150:0.035084211 151:0.035084211 152:0.035084211 153:0.035084211 154:0.035084211 155:0.035084211 156:0.035084211 157:0.017850064 158:0.017850064 159:0.017850064 160:0.017850064 161:0.017850064 162:0.017850064 163:0.017850064 164:0.017850064 165:0.017850064 166:0.017850064 167:0.017850064 168:0.017850064 169:0.017850064 170:0.017850064 171:0.017850064 172:0.017850064 173:0.017850064 174:0.017850064 175:0.017850064 176:0.017850064 177:0.017850064 178:0.017850064 179:0.017850064 180:0.017850064 181:0.017850064 182:0.017850064 183:0.017850064 184:0.017850064 185:0.017850064 186:0.55353412 187:0.55353412 188:0.55353412 189:0.55353412 190:1 191:0.64289158 192:0.64289158 193:0.64289158 194:0.64289158 195:0.48217672 196:0.48217672 197:0.4642838 198:0.48217672 199:0.48217672 200:0.48217672 201:0.48217672 202:0.48217672 203:0.48217672 204:0.51785542 205:0.4286051 206:0.41071218 207:0.41071218 208:0.41071218 209:0.41071218 210:0.41071218 211:0.26789024 212:0.26789024 213:0.26789024 214:0.26789024 215:0.26789024 216:0.26789024 217:0.26789024 218:0.26789024 219:0.053603763 220:0.053603763 221:0.1167 222:0.1167 223:0.1167 224:0.1333 225:0.1333 226:0.1333 227:0.1333 228:0.1167 229:0.1167 230:0.1333 231:0.1333 232:0.1333 233:0.1333 234:0.1333 235:0.1333 236:0.1167 237:0.1333 238:0.1333 239:0.1333 240:0.1333 241:0.1333 242:0.1167 243:0.1167 244:0.1167 245:0.1333 246:0.1333 247:0.1333 248:0.1167 249:0.1167 250:0.1167 251:0.1167 252:0.1333 253:0.1333 254:0.1333 255:0.1333 256:0.1333 257:0.1333 258:0.1333 259:0.1333 260:0.1333 261:0.3 262:0.3 263:0.3 264:0.3 265:0.3 266:0.3 267:0.3 268:0.3 269:0.3 270:0.4667 271:0.4667 272:0.65 273:0.2833 274:0.2833 275:0.2833 276:0.2833 277:0.2833 278:0.2833 279:0.2833 280:0.2833 281:0.2833 282:0.2833 283:0.2833 284:0.2833 285:0.2833 286:0.2833 287:0.2833 288:0.2833 289:0.5333 290:0.5333 291:0.5333 292:0.5333 293:0.5333 294:0.5333 295:0.5333 296:0.5333 297:0.5333 298:0.5333 299:0.5333 300:0.5333 301:0.5333 302:0.75 303:0.4833 304:0.4833 305:0.4833 306:0.4833 307:0.4833 308:0.2667 309:0.2667 310:0.25 311:0.25 312:0.25 313:0.2333 314:0.2333 315:0.25 316:0.25 317:0.25 318:0.25 319:0.25 320:0.25 321:0.25 322:0.25 323:0.25 324:0.25 325:0.2333 326:0.25 327:0.25 328:0.25 329:0.2333 330:0.15 331:0.15 332:0.15 333:0.1333 334:0.1333 335:0.1333 336:0.1333 337:0.1333 338:0.1333 339:0.1333 340:0.1333 341:0.1333 342:0.1333 343:0.1333 344:0.1333 345:0.1333 346:0.1333 347:0.1333 348:0.1333 349:0.1333 350:0.1333 351:0.1333 352:0.1333 353:0.1333 354:0.1333 355:0.1333 356:0.1333 357:0.1333 358:0.1333 359:0.1333 360:0.1333 
0.694538071472227 1:0.2833 2:0.2833 3:1 4:1 5:1 6:1 7:0.8667 8:0.75 9:0.75 10:0.6 11:0.6 12:0.4833 13:0.4833 14:0.4833 15:0.45 16:0.35 17:0.35 18:0.3667 19:0.3 20:0.3 21:0.3 22:0.3 23:0.2833 24:0.2833 25:0.2833 26:0.2833 27:0.2833 28:0.2833 29:0.3 30:0.2833 31:0.2833 32:0.3 33:0.2833 34:0.2833 35:0.3 36:0.2833 37:0.2833 38:0.2833 39:0.3 40:0.3 41:0.3 42:0.3 43:0.3 44:0.3 45:0.3 46:0.3 47:0.3 48:0.3 49:0.3 50:0.3 51:0.3 52:0.3 53:0.3 54:0.3 55:0.3 56:0.3 57:0.3167 58:0.3167 59:0.3333 60:0.3333 61:0.3333 62:0.3333 63:0.3167 64:0.3333 65:0.3333 66:0.3167 67:0.3333 68:0.3333 69:0.3333 70:0.3333 71:0.3333 72:0.3333 73:0.3333 74:0.3167 75:0.3333 76:0.3333 77:0.3333 78:0.3333 79:0.55 80:0.55 81:0.55 82:0.5667 83:0.5667 84:0.5833 85:0.5667 86:0.7667 87:0.7667 88:0.7667 89:0.7667 90:0.7667 91:0.7833 92:0.9667 93:1 94:1 95:1 96:1 97:1 98:1 99:0.7833 100:0.7833 101:0.65 102:0.4833 103:0.4833 104:0.4833 105:0.4667 106:0.4833 107:0.4667 108:0.4833 109:0.4667 110:0.4833 111:0.2667 112:0.25 113:0.25 114:0.25 115:0.25 116:0.25 117:0.25 118:0.25 119:0.25 120:0.25 121:0.25 122:0.25 123:0.1667 124:0.1667 125:0.1667 126:0.1667 127:0.1667 128:0.1667 129:0.1667 130:0.1667 131:0.1667 132:0.1667 133:0.1667 134:0.1667 135:0.1667 136:0.1667 137:0.1667 138:0.1667 139:0.1667 140:0.1667 141:0.1667 142:0.12284211 143:0.12284211 144:0.12284211 145:0.12284211 146:0.12284211 147:0.12284211 148:0.12284211 149:0.12284211 150:0.14031579 151:0.14031579 152:0.17547368 153:0.17547368 154:0.17547368 155:0.15789474 156:0.15789474 157:0.14285408 158:0.14285408 159:0.14285408 160:0.14285408 161:0.14285408 162:0.14285408 163:0.14285408 164:0.14285408 165:0.14285408 166:0.14285408 167:0.14285408 168:0.14285408 169:0.14285408 170:0.14285408 171:0.14285408 172:0.14285408 173:0.14285408 174:0.14285408 175:0.14285408 176:0.14285408 177:0.14285408 178:0.071389541 179:0.071389541 180:0.071389541 181:0.071389541 182:0.071389541 183:0.071389541 184:0.071389541 185:0.071389541 186:0.071389541 187:0.071389541 188:0.071389541 189:0.071389541 190:0.071389541 191:0.071389541 192:0.071389541 193:0.071389541 194:0.071389541 195:0.071389541 196:0.071389541 197:0.071389541 198:0.071389541 199:0.071389541 200:0.071389541 201:0.071389541 202:0.071389541 203:0.071389541 204:0.071389541 205:0.071389541 206:0.071389541 207:0.071389541 208:0.071389541 209:0.071389541 210:0.071389541 211:0.071389541 212:0.071389541 213:0.071389541 214:0.071389541 215:0.071389541 216:0.160747 217:0.14285408 218:0.160747 219:0.160747 220:0.160747 221:0.2 222:0.2167 223:0.2167 224:0.2167 225:0.2 226:0.2 227:0.2167 228:0.2167 229:0.2167 230:0.2167 231:0.2167 232:0.2333 233:0.2333 234:0.2333 235:0.4167 236:0.4 237:0.4167 238:0.4 239:0.4167 240:0.4167 241:0.4 242:0.3667 243:0.3667 244:0.35 245:0.35 246:0.3667 247:0.35 248:0.35 249:0.3667 250:0.35 251:0.35 252:0.3667 253:0.35 254:0.3667 255:0.35 256:0.35 257:0.3667 258:0.5 259:0.5 260:0.5 261:0.5167 262:0.65 263:0.65 264:0.8333 265:1 266:1 267:1 268:1 269:1 270:1 271:1 272:1 273:1 274:1 275:1 276:1 277:1 278:0.9 279:0.9 280:0.7 281:0.5167 282:0.5167 283:0.5167 284:0.5167 285:0.5167 286:0.35 287:0.35 288:0.5167 289:0.35 290:0.3667 291:0.35 292:0.35 293:0.7167 294:0.1833 295:0.1833 296:0.1833 297:0.1833 298:0.1833 299:0.1833 300:0.1833 301:0.1833 302:0.1833 303:0.1833 304:0.1833 305:0.1833 306:0.1833 307:0.1833 308:0.1833 309:0.1833 310:0.1833 311:0.1833 312:0.1833 313:0.1833 314:0.1833 315:0.1833 316:0.1833 317:0.1833 318:0.1833 319:0.1833 320:0.1833 321:0.1833 322:0.1833 323:0.1833 324:0.1833 325:0.1833 326:0.1833 327:0.1833 328:0.1833 329:0.1833 330:0.1833 331:0.1833 332:0.2167 333:0.2167 334:0.2167 335:0.2167 336:0.2167 337:0.2167 338:0.2167 339:0.2167 340:0.2167 341:0.2167 342:0.2167 343:0.2167 344:0.2167 345:0.2167 346:0.2167 347:0.2167 348:0.2167 349:0.2167 350:0.2167 351:0.2833 352:0.2833 353:0.2833 354:0.2833 355:0.2833 356:0.2833 357:0.2833 358:0.2833 359:0.2833 360:0.2833 
1.511082805737294 1:1 2:1 3:1 4:1 5:1 6:0.8833 7:0.7667 8:0.6333 9:0.5833 10:0.5167 11:0.5167 12:0.4833 13:0.3667 14:0.3667 15:0.3667 16:0.35 17:0.3333 18:0.3167 19:0.3 20:0.3 21:0.3 22:0.3 23:0.3 24:0.3 25:0.3 26:0.3 27:0.3 28:0.3 29:0.3 30:0.3 31:0.3 32:0.3 33:0.3 34:0.3 35:0.3 36:0.3 37:0.3 38:0.3167 39:0.3167 40:0.3 41:0.3167 42:0.3167 43:0.3167 44:0.3167 45:0.3167 46:0.3167 47:0.3167 48:0.3167 49:0.3167 50:0.3167 51:0.3167 52:0.3 53:0.3167 54:0.3167 55:0.3167 56:0.3333 57:0.3333 58:0.3167 59:0.3333 60:0.3333 61:0.3333 62:0.3333 63:0.3167 64:0.3333 65:0.3333 66:0.3167 67:0.3333 68:0.3333 69:0.3333 70:0.3333 71:0.3333 72:0.3333 73:0.3333 74:0.3167 75:0.3333 76:0.55 77:0.55 78:0.55 79:0.55 80:0.55 81:0.55 82:0.7333 83:0.7333 84:0.7667 85:0.7667 86:0.7667 87:0.7667 88:0.7667 89:0.7667 90:0.8667 91:0.9667 92:1 93:1 94:1 95:1 96:1 97:1 98:1 99:1 100:0.4667 101:0.4667 102:0.4667 103:0.4667 104:0.4667 105:0.3 106:0.2833 107:0.2833 108:0.25 109:0.2333 110:0.2333 111:0.2333 112:0.2333 113:0.2333 114:0.2333 115:0.2333 116:0.2333 117:0.2333 118:0.2333 119:0.2333 120:0.15 121:0.15 122:0.15 123:0.15 124:0.15 125:0.15 126:0.15 127:0.15 128:0.15 129:0.15 130:0.15 131:0.15 132:0.15 133:0.15 134:0.15 135:0.15 136:0.15 137:0.15 138:0.15 139:0.15 140:0.15 141:0.15 142:0.10526316 143:0.10526316 144:0.10526316 145:0.10526316 146:0.10526316 147:0.10526316 148:0.10526316 149:0.10526316 150:0.10526316 151:0.10526316 152:0.10526316 153:0.14031579 154:0.14031579 155:0.14031579 156:0.14031579 157:0.12496116 158:0.12496116 159:0.12496116 160:0.12496116 161:0.12496116 162:0.12496116 163:0.12496116 164:0.12496116 165:0.12496116 166:0.12496116 167:0.12496116 168:0.12496116 169:0.12496116 170:0.12496116 171:0.12496116 172:0.12496116 173:0.089282462 174:0.089282462 175:0.089282462 176:0.089282462 177:0.089282462 178:0.053603763 179:0.053603763 180:0.053603763 181:0.053603763 182:0.053603763 183:0.053603763 184:0.053603763 185:0.053603763 186:0.035710842 187:0.035710842 188:0.035710842 189:0.035710842 190:0.035710842 191:0.035710842 192:0.053603763 193:0.053603763 194:0.035710842 195:0.035710842 196:0.035710842 197:0.053603763 198:0.053603763 199:0.053603763 200:0.053603763 201:0.053603763 202:0.035710842 203:0.053603763 204:0.053603763 205:0.053603763 206:0.053603763 207:0.053603763 208:0.053603763 209:0.053603763 210:0.035710842 211:0.035710842 212:0.035710842 213:0.053603763 214:0.053603763 215:0.053603763 216:0.053603763 217:0.053603763 218:0.035710842 219:0.035710842 220:0.035710842 221:0.1 222:0.1 223:0.1 224:0.2 225:0.2 226:0.2 227:0.2 228:0.2 229:0.1833 230:0.2 231:0.2 232:0.2 233:0.2 234:0.2167 235:0.2167 236:0.2167 237:0.2333 238:0.2333 239:0.2333 240:0.4167 241:0.4 242:0.4167 243:0.4 244:0.4167 245:0.4 246:0.4 247:0.4167 248:0.3667 249:0.3667 250:0.3667 251:0.3667 252:0.3667 253:0.3667 254:0.3667 255:0.3667 256:0.3667 257:0.3667 258:0.3667 259:0.3667 260:0.5167 261:0.5167 262:0.5167 263:0.6667 264:0.6667 265:0.8167 266:0.9833 267:1 268:1 269:1 270:1 271:1 272:1 273:1 274:1 275:1 276:1 277:1 278:0.9167 279:0.9167 280:0.9167 281:0.7167 282:0.7167 283:0.5333 284:0.5333 285:0.5333 286:0.5333 287:0.5333 288:0.3667 289:0.3667 290:0.3667 291:0.3667 292:0.3667 293:0.3667 294:0.3667 295:0.3667 296:0.3667 297:0.3667 298:0.2 299:0.2 300:0.2167 301:0.2167 302:0.2 303:0.2 304:0.2 305:0.2 306:0.2 307:0.2 308:0.2 309:0.2 310:0.2 311:0.2 312:0.2 313:0.2 314:0.2 315:0.2 316:0.2 317:0.2 318:0.2 319:0.2 320:0.2 321:0.2 322:0.2 323:0.2 324:0.2 325:0.2167 326:0.2 327:0.2 328:0.2 329:0.2 330:0.2167 331:0.2167 332:0.2167 333:0.2333 334:0.2333 335:0.2333 336:0.2333 337:0.2333 338:0.2333 339:0.2333 340:0.2333 341:0.2333 342:0.2333 343:0.2333 344:0.2333 345:0.2333 346:0.2333 347:0.2333 348:0.25 349:0.3 350:0.3 351:0.3 352:0.3 353:0.3 354:0.3 355:0.3 356:0.3 357:0.3 358:0.3 359:0.3 360:0.5833 
0.3538394096402166 1:1 2:1 3:1 4:1 5:0.8667 6:0.6833 7:0.6833 8:0.6167 9:0.5333 10:0.4833 11:0.4333 12:0.3833 13:0.35 14:0.3333 15:0.3 16:0.2833 17:0.2833 18:0.2833 19:0.2833 20:0.2833 21:0.2833 22:0.2833 23:0.2833 24:0.2833 25:0.2833 26:0.2833 27:0.2833 28:0.2833 29:0.2833 30:0.2833 31:0.2833 32:0.2833 33:0.2833 34:0.2833 35:0.2833 36:0.3 37:0.2833 38:0.3 39:0.3 40:0.2833 41:0.3 42:0.3 43:0.2833 44:0.2833 45:0.3 46:0.3 47:0.3 48:0.3 49:0.3 50:0.3 51:0.3 52:0.3 53:0.3 54:0.3 55:0.3 56:0.3 57:0.3167 58:0.3167 59:0.3167 60:0.3167 61:0.3167 62:0.3167 63:0.3167 64:0.3167 65:0.3167 66:0.3167 67:0.3167 68:0.3167 69:0.3167 70:0.3167 71:0.3167 72:0.3167 73:0.3167 74:0.3167 75:0.5333 76:0.5333 77:0.5333 78:0.5333 79:0.5333 80:0.55 81:0.55 82:0.7167 83:0.7167 84:0.75 85:0.75 86:0.75 87:0.75 88:0.75 89:0.75 90:0.7667 91:0.95 92:1 93:1 94:1 95:0.9833 96:0.9833 97:0.9833 98:0.7667 99:0.7667 100:0.6167 101:0.6167 102:0.6167 103:0.45 104:0.45 105:0.45 106:0.45 107:0.45 108:0.45 109:0.2333 110:0.2333 111:0.2333 112:0.2333 113:0.2333 114:0.2333 115:0.2333 116:0.2333 117:0.2333 118:0.2333 119:0.2333 120:0.2333 121:0.2333 122:0.2333 123:0.2333 124:0.2333 125:0.2333 126:0.2333 127:0.2167 128:0.15 129:0.15 130:0.15 131:0.1667 132:0.1667 133:0.1667 134:0.15 135:0.1667 136:0.1667 137:0.1667 138:0.1667 139:0.1667 140:0.15 141:0.1667 142:0.12284211 143:0.12284211 144:0.12284211 145:0.10526316 146:0.10526316 147:0.12284211 148:0.12284211 149:0.12284211 150:0.10526316 151:0.10526316 152:0.10526316 153:0.12284211 154:0.12284211 155:0.12284211 156:0.14031579 157:0.12496116 158:0.12496116 159:0.12496116 160:0.12496116 161:0.12496116 162:0.12496116 163:0.12496116 164:0.12496116 165:0.12496116 166:0.12496116 167:0.12496116 168:0.12496116 169:0.12496116 170:0.12496116 171:0.12496116 172:0.12496116 173:0.12496116 174:0.12496116 175:0.12496116 176:0.12496116 177:0.12496116 178:0.12496116 179:0.10717538 180:0.10717538 181:0.10717538 182:0.10717538 183:0.10717538 184:0.089282462 185:0.053603763 186:0.053603763 187:0.053603763 188:0.053603763 189:0.053603763 190:0.053603763 191:0.053603763 192:0.053603763 193:0.053603763 194:0.053603763 195:0.053603763 196:0.071389541 197:0.071389541 198:0.071389541 199:0.071389541 200:0.053603763 201:0.053603763 202:0.071389541 203:0.071389541 204:0.071389541 205:0.071389541 206:0.071389541 207:0.053603763 208:0.053603763 209:0.053603763 210:0.071389541 211:0.071389541 212:0.071389541 213:0.053603763 214:0.053603763 215:0.053603763 216:0.053603763 217:0.053603763 218:0.053603763 219:0.053603763 220:0.071389541 221:0.1333 222:0.1333 223:0.2167 224:0.2167 225:0.2 226:0.2 227:0.2167 228:0.2167 229:0.2167 230:0.2167 231:0.2167 232:0.2333 233:0.2333 234:0.2333 235:0.25 236:0.25 237:0.25 238:0.4333 239:0.4167 240:0.4167 241:0.4167 242:0.4167 243:0.4333 244:0.4167 245:0.3667 246:0.3667 247:0.3667 248:0.3667 249:0.3667 250:0.4333 251:0.3667 252:0.4833 253:0.3667 254:0.3667 255:0.3667 256:0.3667 257:0.3667 258:0.5167 259:0.5167 260:0.5167 261:0.5167 262:0.6667 263:0.6667 264:0.85 265:1 266:1 267:1 268:1 269:1 270:1 271:1 272:1 273:1 274:1 275:1 276:1 277:0.9333 278:0.9333 279:0.7333 280:0.7333 281:0.5333 282:0.5333 283:0.5333 284:0.5333 285:0.3667 286:0.3667 287:0.3667 288:0.3667 289:0.3667 290:0.3833 291:0.3667 292:0.3833 293:0.3667 294:0.2333 295:0.2167 296:0.2167 297:0.2167 298:0.2 299:0.2 300:0.2167 301:0.2167 302:0.2 303:0.2 304:0.2 305:0.2 306:0.2 307:0.2 308:0.2 309:0.2 310:0.2167 311:0.2 312:0.2 313:0.2 314:0.2 315:0.2 316:0.2 317:0.2 318:0.2 319:0.2167 320:0.2167 321:0.2 322:0.2 323:0.2 324:0.2167 325:0.2167 326:0.2167 327:0.2333 328:0.2333 329:0.2333 330:0.2333 331:0.2333 332:0.2333 333:0.2333 334:0.2333 335:0.2333 336:0.2333 337:0.2333 338:0.2333 339:0.2333 340:0.2333 341:0.2333 342:0.2333 343:0.2333 344:0.2833 345:0.2833 346:0.2833 347:0.3 348:0.2833 349:0.2833 350:0.3 351:0.2833 352:0.2833 353:0.2833 354:0.2833 355:0.2833 356:0.2833 357:0.45 358:0.5667 359:0.8 360:1 
0.006257312053404475 1:1 2:1 3:1 4:0.7833 5:0.75 6:0.7333 7:0.55 8:0.4667 9:0.4167 10:0.3667 11:0.3333 12:0.3 13:0.2833 14:0.2667 15:0.2667 16:0.2667 17:0.2667 18:0.2667 19:0.2667 20:0.2667 21:0.2667 22:0.2667 23:0.2667 24:0.2667 25:0.2667 26:0.2667 27:0.2667 28:0.2667 29:0.2667 30:0.2667 31:0.2667 32:0.2667 33:0.2833 34:0.2833 35:0.2833 36:0.2833 37:0.2833 38:0.2833 39:0.2833 40:0.2833 41:0.2833 42:0.2833 43:0.2833 44:0.2833 45:0.2833 46:0.2833 47:0.2833 48:0.2833 49:0.2833 50:0.2833 51:0.2833 52:0.2833 53:0.2833 54:0.3 55:0.2833 56:0.3 57:0.3 58:0.2833 59:0.3 60:0.3 61:0.2833 62:0.3 63:0.3 64:0.3 65:0.3 66:0.3 67:0.3 68:0.3 69:0.3 70:0.3 71:0.3 72:0.3 73:0.3 74:0.3 75:0.3 76:0.3 77:0.3 78:0.5333 79:0.5333 80:0.5333 81:0.5333 82:0.5333 83:0.5333 84:0.7167 85:0.7333 86:0.7333 87:0.7333 88:0.75 89:0.75 90:0.75 91:0.8167 92:1 93:1 94:0.5667 95:0.5667 96:0.5667 97:0.5667 98:0.5667 99:0.5667 100:0.5667 101:0.5667 102:0.6167 103:0.45 104:0.45 105:0.45 106:0.45 107:0.45 108:0.45 109:0.45 110:0.2833 111:0.2833 112:0.25 113:0.25 114:0.2333 115:0.2167 116:0.2167 117:0.2167 118:0.2167 119:0.2333 120:0.2167 121:0.2167 122:0.2333 123:0.2333 124:0.2167 125:0.2167 126:0.2333 127:0.2333 128:0.2167 129:0.2167 130:0.2167 131:0.15 132:0.15 133:0.15 134:0.15 135:0.15 136:0.15 137:0.15 138:0.15 139:0.15 140:0.15 141:0.15 142:0.10526316 143:0.10526316 144:0.10526316 145:0.10526316 146:0.10526316 147:0.10526316 148:0.10526316 149:0.10526316 150:0.10526316 151:0.10526316 152:0.10526316 153:0.10526316 154:0.10526316 155:0.10526316 156:0.10526316 157:0.089282462 158:0.089282462 159:0.089282462 160:0.14285408 161:0.14285408 162:0.14285408 163:0.14285408 164:0.14285408 165:0.14285408 166:0.14285408 167:0.14285408 168:0.14285408 169:0.14285408 170:0.14285408 171:0.14285408 172:0.14285408 173:0.14285408 174:0.14285408 175:0.14285408 176:0.14285408 177:0.14285408 178:0.14285408 179:0.12496116 180:0.12496116 181:0.12496116 182:0.12496116 183:0.12496116 184:0.12496116 185:0.12496116 186:0.12496116 187:0.12496116 188:0.12496116 189:0.10717538 190:0.089282462 191:0.071389541 192:0.089282462 193:0.089282462 194:0.089282462 195:0.089282462 196:0.089282462 197:0.089282462 198:0.089282462 199:0.089282462 200:0.089282462 201:0.089282462 202:0.089282462 203:0.089282462 204:0.089282462 205:0.089282462 206:0.089282462 207:0.089282462 208:0.089282462 209:0.089282462 210:0.089282462 211:0.089282462 212:0.089282462 213:0.089282462 214:0.089282462 215:0.089282462 216:0.071389541 217:0.089282462 218:0.089282462 219:0.160747 220:0.160747 221:0.2167 222:0.2167 223:0.2167 224:0.2167 225:0.2167 226:0.2167 227:0.2167 228:0.2167 229:0.2167 230:0.2167 231:0.2167 232:0.2333 233:0.2333 234:0.2333 235:0.2667 236:0.3 237:0.4333 238:0.4333 239:0.4333 240:0.4333 241:0.4333 242:0.4333 243:0.4333 244:0.3833 245:0.3833 246:0.3833 247:0.3833 248:0.3833 249:0.3833 250:0.3833 251:0.3833 252:0.3833 253:0.3833 254:0.3833 255:0.3833 256:0.5167 257:0.5167 258:0.5167 259:0.5167 260:0.6833 261:0.6833 262:0.6833 263:0.8667 264:1 265:1 266:1 267:1 268:1 269:1 270:1 271:1 272:1 273:1 274:1 275:1 276:0.9167 277:0.7167 278:0.7333 279:0.55 280:0.55 281:0.55 282:0.3833 283:0.3667 284:0.3667 285:0.3667 286:0.3667 287:0.3667 288:0.3667 289:0.2333 290:0.2333 291:0.2167 292:0.2 293:0.2 294:0.2 295:0.2 296:0.2 297:0.2 298:0.2 299:0.2 300:0.2 301:0.2 302:0.2 303:0.2 304:0.2 305:0.2 306:0.2 307:0.2 308:0.2 309:0.2 310:0.2 311:0.2 312:0.2 313:0.2 314:0.2 315:0.2 316:0.2 317:0.2167 318:0.2167 319:0.2167 320:0.2167 321:0.2167 322:0.2333 323:0.2333 324:0.2333 325:0.2333 326:0.2333 327:0.2333 328:0.2333 329:0.2333 330:0.2333 331:0.2333 332:0.2333 333:0.2333 334:0.2333 335:0.2333 336:0.2333 337:0.2333 338:0.2333 339:0.3 340:0.2833 341:0.3333 342:0.3 343:0.3 344:0.3 345:0.3 346:0.3 347:0.3 348:0.3 349:0.3 350:0.3 351:0.3 352:0.3 353:0.3167 354:0.4333 355:0.4333 356:0.55 357:0.6667 358:0.7833 359:1 360:1 
0.2401477987780673 1:0.1833 2:0.1833 3:0.1833 4:0.1833 5:0.1833 6:0.1833 7:0.1833 8:0.1833 9:1 10:1 11:1 12:1 13:1 14:1 15:1 16:1 17:1 18:1 19:1 20:1 21:1 22:1 23:1 24:1 25:1 26:1 27:1 28:0.6 29:0.6 30:0.6 31:0.6 32:0.6 33:0.6 34:0.6 35:0.6 36:0.4833 37:0.4667 38:0.4667 39:0.4667 40:0.4667 41:0.4667 42:0.4667 43:0.4667 44:0.4667 45:0.4667 46:0.4667 47:0.45 48:0.45 49:0.45 50:0.45 51:0.45 52:0.45 53:0.45 54:0.45 55:0.45 56:0.45 57:0.4167 58:0.35 59:0.35 60:0.35 61:0.35 62:0.35 63:0.35 64:0.35 65:0.35 66:0.35 67:0.35 68:0.35 69:0.35 70:0.35 71:0.35 72:0.35 73:0.35 74:0.3667 75:0.35 76:0.35 77:0.3667 78:0.3667 79:0.3667 80:0.3833 81:0.3833 82:0.3667 83:0.3667 84:0.3667 85:0.3667 86:0.3667 87:0.3667 88:0.3667 89:0.3667 90:0.3333 91:0.3333 92:0.3333 93:0.3333 94:0.3333 95:0.3333 96:0.3333 97:0.3333 98:0.3333 99:0.3333 100:0.3333 101:0.3333 102:0.3333 103:0.3333 104:0.3333 105:0.3333 106:0.3833 107:0.3833 108:0.3833 109:0.3833 110:0.3833 111:0.3833 112:0.3833 113:0.3833 114:0.3833 115:0.3833 116:0.3833 117:0.4 118:0.4167 119:0.4 120:0.4167 121:0.4167 122:0.4167 123:0.4167 124:0.4 125:0.4167 126:0.4 127:0.4167 128:0.4167 129:0.4167 130:0.45 131:0.45 132:0.45 133:0.45 134:0.45 135:0.45 136:0.4667 137:0.4667 138:0.4833 139:0.4833 140:0.5 141:0.5167 142:0.49126316 143:0.50873684 144:0.49126316 145:0.50873684 146:0.49126316 147:0.49126316 148:0.50873684 149:0.49126316 150:0.50873684 151:0.49126316 152:0.50873684 153:0.80705263 154:0.80705263 155:0.80705263 156:0.80705263 157:0.80360644 158:0.80360644 159:0.80360644 160:0.80360644 161:0.80360644 162:0.80360644 163:1 164:1 165:1 166:1 167:1 168:1 169:1 170:1 171:1 172:1 173:1 174:0.75003482 175:0.75003482 176:0.75003482 177:0.75003482 178:0.33924764 179:0.33924764 180:0.21431862 181:0.21431862 182:0.21431862 183:0.21431862 184:0.21431862 185:0.21431862 186:0.21431862 187:0.1964257 188:0.1964257 189:0.1964257 190:0.21431862 191:0.1964257 192:0.1964257 193:0.21431862 194:0.1964257 195:0.1964257 196:0.21431862 197:0.21431862 198:0.1964257 199:0.1964257 200:0.21431862 201:0.1964257 202:0.1964257 203:0.1964257 204:0.1964257 205:0.2321044 206:0.28567602 207:0.28567602 208:0.14285408 209:0.14285408 210:0.12496116 211:0.14285408 212:0.14285408 213:0.14285408 214:0.14285408 215:0.14285408 216:0.14285408 217:0.14285408 218:0.14285408 219:0.14285408 220:0.14285408 221:0.2 222:0.2 223:0.2 224:0.2 225:0.2 226:0.2 227:0.2 228:0.2 229:0.1833 230:0.2 231:0.2 232:0.2 233:0.2 234:0.2 235:0.2 236:0.2 237:0.2 238:0.2167 239:0.2 240:0.2 241:0.2 242:0.2167 243:0.2167 244:0.2 245:0.2 246:0.2167 247:0.2167 248:0.2 249:0.2 250:0.2 251:0.2 252:0.2 253:0.2 254:0.2 255:0.2 256:0.2167 257:0.2333 258:0.2333 259:0.2333 260:0.2333 261:0.2333 262:0.5333 263:0.55 264:0.5167 265:0.55 266:0.6333 267:0.6333 268:0.6333 269:0.6333 270:0.6333 271:1 272:1 273:1 274:1 275:1 276:1 277:1 278:1 279:1 280:1 281:1 282:1 283:1 284:1 285:1 286:0.8667 287:0.85 288:0.85 289:0.8333 290:0.8333 291:0.8333 292:0.8667 293:0.3833 294:0.4 295:0.3833 296:0.4 297:0.3833 298:0.4 299:0.4 300:0.4 301:0.4 302:0.3833 303:0.4 304:0.4 305:0.4 306:0.4333 307:0.4333 308:0.4333 309:0.4333 310:0.4333 311:0.4333 312:0.3167 313:0.2333 314:0.2333 315:0.3 316:0.3 317:0.25 318:0.25 319:0.2833 320:0.25 321:0.25 322:0.25 323:0.2667 324:0.25 325:0.2333 326:0.2667 327:0.2667 328:0.25 329:0.2333 330:0.15 331:0.15 332:0.15 333:0.15 334:0.15 335:0.15 336:0.1667 337:0.15 338:0.15 339:0.15 340:0.15 341:0.1667 342:0.1667 343:0.15 344:0.15 345:0.15 346:0.15 347:0.1667 348:0.15 349:0.15 350:0.15 351:0.15 352:0.15 353:0.15 354:0.15 355:0.15 356:0.15 357:0.15 358:0.15 359:0.1833 360:0.1833 
0.3065862027933848 1:1 2:1 3:1 4:1 5:1 6:0.5333 7:0.5333 8:0.3667 9:0.3833 10:0.3667 11:0.3833 12:0.3833 13:0.3833 14:0.3833 15:0.3667 16:0.3833 17:0.3833 18:0.3167 19:0.1833 20:0.1833 21:0.1667 22:0.1667 23:0.1833 24:0.1833 25:0.1833 26:0.1667 27:0.1667 28:0.1667 29:0.1667 30:0.1667 31:0.1667 32:0.1667 33:0.1667 34:0.1667 35:0.1667 36:0.1667 37:0.1667 38:0.1667 39:0.1667 40:0.1667 41:0.1667 42:0.1667 43:0.1667 44:0.1667 45:0.1667 46:0.1667 47:0.15 48:0.1667 49:0.1667 50:0.1667 51:0.1667 52:0.1667 53:0.1667 54:0.1667 55:0.1667 56:0.1667 57:0.1667 58:0.1667 59:0.1667 60:0.1667 61:0.1667 62:0.1667 63:0.1333 64:0.1333 65:0.1333 66:0.1333 67:0.1333 68:0.1333 69:0.1333 70:0.1333 71:0.1333 72:0.1333 73:0.1333 74:0.1333 75:0.1333 76:0.1333 77:0.1333 78:0.1333 79:0.1 80:0.1 81:0.1 82:0.1 83:0.1 84:0.1 85:0.1 86:0.1 87:0.1 88:0.1 89:0.1 90:0.1 91:0.1 92:0.1 93:0.1 94:0.1 95:0.1 96:0.1 97:0.1 98:0.1 99:0.1 100:0.1 101:0.1 102:0.1 103:0.1 104:0.1 105:0.1 106:0.1 107:0.1 108:0.1 109:0.1 110:0.1 111:0.1 112:0.1 113:0.1 114:0.1 115:0.1 116:0.1 117:0.1 118:0.1 119:0.1 120:0.1 121:0.1 122:0.1 123:0.1 124:0.1 125:0.1 126:0.1 127:0.1 128:0.1667 129:0.1667 130:0.1667 131:0.1667 132:0.1667 133:0.1667 134:0.1667 135:0.15 136:0.1667 137:0.1667 138:0.1667 139:0.1667 140:0.1667 141:0.1667 142:0.17547368 143:0.17547368 144:0.17547368 145:0.19294737 146:0.19294737 147:0.17547368 148:0.17547368 149:0.19294737 150:0.19294737 151:0.17547368 152:0.17547368 153:0.19294737 154:0.17547368 155:0.17547368 156:0.17547368 157:0.160747 158:0.17853278 159:0.2321044 160:0.2321044 161:0.2321044 162:0.2321044 163:0.24999732 164:0.26789024 165:0.28567602 166:0.30356894 167:0.32146186 168:0.35714056 169:0.37503348 170:0.37503348 171:0.37503348 172:0.37503348 173:0.37503348 174:0.37503348 175:0.37503348 176:0.37503348 177:0.37503348 178:0.7321419 179:0.7321419 180:0.9643213 181:1 182:1 183:1 184:1 185:1 186:1 187:1 188:1 189:1 190:1 191:0.75003482 192:0.75003482 193:0.75003482 194:0.75003482 195:0.75003482 196:0.75003482 197:0.7678206 198:0.9643213 199:0.87496384 200:0.7678206 201:0.80360644 202:0.78571352 203:0.7678206 204:0.7678206 205:0.7678206 206:0.80360644 207:0.80360644 208:1 209:1 210:0.39281926 211:0.83928514 212:0.39281926 213:0.80360644 214:0.39281926 215:0.78571352 216:0.39281926 217:0.78571352 218:0.39281926 219:0.32146186 220:0.32146186 221:0.35 222:0.3667 223:0.3667 224:0.3667 225:0.3667 226:0.35 227:0.3667 228:0.3667 229:0.3667 230:0.3667 231:0.35 232:0.3667 233:0.3667 234:0.3667 235:0.3833 236:0.3667 237:0.3667 238:0.4833 239:0.4833 240:0.4333 241:0.3833 242:0.3833 243:0.3833 244:0.3833 245:0.3833 246:0.3833 247:0.3833 248:0.3833 249:0.3833 250:0.3833 251:0.3833 252:0.3833 253:0.3833 254:0.3833 255:0.3833 256:0.4167 257:0.4333 258:0.4167 259:0.4333 260:0.4167 261:0.4167 262:0.4167 263:0.4167 264:0.4167 265:0.4167 266:0.45 267:0.45 268:0.4667 269:0.8667 270:0.8667 271:0.8667 272:1 273:1 274:1 275:1 276:1 277:1 278:1 279:1 280:1 281:1 282:1 283:1 284:1 285:1 286:0.6167 287:0.6167 288:0.6167 289:0.6167 290:0.6167 291:0.6167 292:0.6167 293:0.6167 294:0.6167 295:0.4333 296:0.4333 297:0.3167 298:0.3167 299:0.3167 300:0.3167 301:0.3167 302:0.3167 303:0.3167 304:0.3167 305:0.3167 306:0.3167 307:0.3167 308:0.3167 309:0.3167 310:0.3167 311:0.3167 312:0.3167 313:0.3167 314:0.3167 315:0.3167 316:0.3167 317:0.3167 318:0.3167 319:0.3167 320:0.3167 321:0.4167 322:0.4167 323:0.4167 324:0.4333 325:0.4333 326:0.4333 327:0.4333 328:0.5 329:0.5 330:0.5 331:0.5 332:0.5 333:0.5167 334:0.5 335:0.5167 336:0.8667 337:0.8667 338:0.85 339:0.85 340:0.85 341:0.85 342:0.85 343:0.85 344:0.85 345:0.9833 346:0.9833 347:1 348:1 349:1 350:1 351:1 352:1 353:1 354:1 355:1 356:1 357:1 358:1 359:1 360:1 
0.06055250298999164 1:1 2:1 3:1 4:1 5:1 6:1 7:1 8:0.7 9:0.7 10:0.7 11:0.7 12:0.7 13:0.7 14:0.7 15:0.7 16:1 17:0.9667 18:0.9667 19:0.8 20:0.7833 21:0.8 22:0.8 23:0.7833 24:0.7833 25:0.7833 26:1 27:1 28:1 29:1 30:0.4333 31:0.45 32:0.4333 33:0.45 34:0.4333 35:0.45 36:0.4333 37:0.45 38:0.4333 39:0.4333 40:0.45 41:0.3 42:0.3 43:0.3 44:0.3 45:0.3 46:0.3 47:0.3 48:0.3 49:0.3 50:0.3 51:0.3 52:0.3 53:0.3 54:0.3 55:0.3 56:0.3 57:0.3 58:0.3 59:0.3 60:0.3 61:0.5333 62:0.5333 63:0.5333 64:0.5333 65:0.5333 66:0.5333 67:0.5333 68:0.5333 69:0.5333 70:0.5333 71:0.5333 72:0.5333 73:0.4833 74:0.4833 75:0.4833 76:0.4667 77:0.4833 78:0.4833 79:0.4833 80:0.4833 81:0.4833 82:0.4833 83:0.4833 84:0.4667 85:0.5667 86:0.5667 87:0.5667 88:0.5667 89:0.5667 90:0.5667 91:0.5667 92:0.4833 93:0.4833 94:0.4833 95:0.4833 96:0.4833 97:0.4833 98:0.4833 99:0.4833 100:0.4833 101:0.4833 102:0.4833 103:0.4833 104:0.5 105:0.5 106:0.5 107:0.5 108:0.5 109:0.5 110:0.5 111:0.5 112:0.5 113:0.5 114:0.3167 115:0.3333 116:0.3333 117:0.3167 118:0.3333 119:0.3333 120:0.3333 121:0.3333 122:0.3333 123:0.3333 124:0.3333 125:0.3167 126:0.3167 127:0.3333 128:0.3333 129:0.3333 130:0.3333 131:0.35 132:0.35 133:0.35 134:0.3667 135:0.3667 136:0.3667 137:0.3833 138:0.3833 139:0.3833 140:0.6833 141:0.75 142:0.36842105 143:0.36842105 144:0.36842105 145:0.36842105 146:0.36842105 147:0.36842105 148:0.36842105 149:0.36842105 150:0.36842105 151:0.36842105 152:0.35084211 153:0.36842105 154:0.36842105 155:0.36842105 156:0.42105263 157:0.41071218 158:0.41071218 159:0.41071218 160:0.41071218 161:0.41071218 162:0.41071218 163:0.41071218 164:0.57142704 165:0.57142704 166:0.57142704 167:0.64289158 168:0.60710574 169:0.67857028 170:0.67857028 171:0.67857028 172:0.67857028 173:0.67857028 174:0.6964632 175:0.71424898 176:0.71424898 177:0.71424898 178:0.80360644 179:0.80360644 180:0.80360644 181:1 182:1 183:1 184:1 185:1 186:1 187:1 188:1 189:1 190:1 191:1 192:1 193:1 194:0.28567602 195:0.28567602 196:0.28567602 197:0.28567602 198:0.26789024 199:0.28567602 200:0.28567602 201:0.28567602 202:0.28567602 203:0.28567602 204:0.28567602 205:0.28567602 206:0.26789024 207:0.28567602 208:0.28567602 209:0.26789024 210:0.28567602 211:0.28567602 212:0.28567602 213:0.28567602 214:0.28567602 215:0.28567602 216:0.28567602 217:0.28567602 218:0.12496116 219:0.12496116 220:0.12496116 221:0.1667 222:0.1667 223:0.1667 224:0.1667 225:0.1667 226:0.1667 227:0.15 228:0.1667 229:0.1667 230:0.1667 231:0.1667 232:0.1667 233:0.1667 234:0.1667 235:0.1667 236:0.1667 237:0.1667 238:0.1667 239:0.1667 240:0.1667 241:0.1667 242:0.1667 243:0.1667 244:0.1667 245:0.1667 246:0.1667 247:0.1667 248:0.1667 249:0.15 250:0.1667 251:0.1667 252:0.5833 253:0.5167 254:0.5 255:0.5 256:0.3833 257:0.3833 258:0.3833 259:0.3833 260:0.3833 261:0.3833 262:0.3833 263:0.3833 264:0.3833 265:0.3833 266:0.3833 267:0.3833 268:0.3833 269:0.3833 270:0.3833 271:0.3833 272:0.3833 273:0.3833 274:0.3833 275:1 276:1 277:1 278:1 279:1 280:1 281:0.8167 282:0.7333 283:0.7333 284:0.7333 285:0.7333 286:0.7333 287:0.7333 288:0.7333 289:0.75 290:0.75 291:0.75 292:0.75 293:0.7667 294:0.7667 295:0.7667 296:0.7667 297:0.5833 298:0.2333 299:0.2333 300:0.2167 301:0.2167 302:0.2167 303:0.2 304:0.2 305:0.2 306:0.1833 307:0.1833 308:0.1833 309:0.1833 310:0.1833 311:0.1667 312:0.1667 313:0.1667 314:0.1667 315:0.1667 316:0.1833 317:0.1667 318:0.1667 319:0.1667 320:0.1833 321:0.1833 322:0.1667 323:0.1667 324:0.1667 325:0.1833 326:0.1833 327:0.1667 328:0.1667 329:0.1667 330:0.1667 331:0.1667 332:0.1667 333:0.1667 334:0.1667 335:0.1667 336:1 337:1 338:1 339:1 340:1 341:1 342:1 343:1 344:1 345:1 346:1 347:1 348:1 349:1 350:1 351:1 352:1 353:1 354:1 355:1 356:1 357:1 358:1 359:1 360:1 
0.5344429839729679 1:0.45 2:0.45 3:0.45 4:0.45 5:0.45 6:0.45 7:0.45 8:0.45 9:0.45 10:0.45 11:0.45 12:0.45 13:0.45 14:0.45 15:0.45 16:0.45 17:0.4667 18:0.4667 19:0.4667 20:0.4667 21:0.4667 22:0.4667 23:0.4667 24:0.4833 25:0.4833 26:0.4833 27:0.4833 28:0.5 29:0.5 30:0.5 31:0.5 32:0.5 33:0.5 34:0.5 35:0.5 36:0.5 37:0.5167 38:0.5167 39:0.5333 40:0.5333 41:0.5333 42:0.55 43:0.55 44:0.5667 45:1 46:1 47:1 48:1 49:1 50:1 51:1 52:1 53:1 54:1 55:1 56:1 57:1 58:1 59:1 60:1 61:1 62:1 63:1 64:1 65:1 66:1 67:1 68:1 69:1 70:1 71:1 72:1 73:1 74:1 75:1 76:1 77:1 78:1 79:1 80:1 81:1 82:1 83:1 84:1 85:1 86:1 87:1 88:1 89:1 90:1 91:1 92:1 93:1 94:1 95:1 96:1 97:1 98:1 99:1 100:1 101:1 102:1 103:1 104:1 105:1 106:1 107:1 108:1 109:0.95 110:0.95 111:0.95 112:0.95 113:0.8667 114:0.8333 115:0.7167 116:0.6833 117:0.6667 118:0.65 119:0.6167 120:0.6167 121:0.6167 122:0.6167 123:0.55 124:0.5333 125:0.55 126:0.4833 127:0.4667 128:0.4667 129:0.4667 130:0.4667 131:0.4333 132:0.4333 133:0.4333 134:0.4333 135:0.4333 136:0.4333 137:0.4333 138:0.4333 139:0.4333 140:0.3667 141:0.3667 142:0.33336842 143:0.33336842 144:0.33336842 145:0.33336842 146:0.33336842 147:0.33336842 148:0.33336842 149:0.33336842 150:0.33336842 151:0.33336842 152:0.33336842 153:0.33336842 154:0.43863158 155:0.43863158 156:0.43863158 157:0.4286051 158:0.4286051 159:0.4286051 160:1 161:1 162:1 163:1 164:1 165:1 166:1 167:1 168:1 169:1 170:1 171:1 172:1 173:0.9643213 174:0.94642838 175:0.91074968 176:0.87496384 177:0.83928514 178:0.82139222 179:0.78571352 180:0.7678206 181:0.7678206 182:0.7321419 183:0.7321419 184:0.7321419 185:0.7321419 186:0.7321419 187:0.6964632 188:0.71424898 189:0.71424898 190:0.71424898 191:0.6964632 192:0.75003482 193:0.71424898 194:0.7678206 195:0.71424898 196:0.71424898 197:0.71424898 198:0.71424898 199:0.41071218 200:0.41071218 201:0.37503348 202:0.37503348 203:0.37503348 204:0.37503348 205:0.33924764 206:0.33924764 207:0.33924764 208:0.33924764 209:0.33924764 210:0.33924764 211:0.33924764 212:0.33924764 213:0.33924764 214:0.33924764 215:0.33924764 216:0.33924764 217:0.33924764 218:0.33924764 219:0.33924764 220:0.37503348 221:0.4167 222:0.4167 223:0.4167 224:0.4 225:0.4 226:0.4167 227:0.4 228:0.4167 229:0.4 230:0.4167 231:0.4 232:0.4 233:0.4167 234:0.4 235:0.4167 236:0.4167 237:0.4333 238:0.45 239:0.45 240:0.4667 241:0.4833 242:0.5 243:0.5167 244:0.5333 245:0.55 246:0.5667 247:0.6 248:0.6167 249:0.65 250:0.6667 251:0.7167 252:0.75 253:0.7833 254:0.85 255:0.8667 256:1 257:1 258:1 259:1 260:1 261:1 262:1 263:1 264:1 265:1 266:1 267:1 268:1 269:1 270:1 271:1 272:1 273:1 274:1 275:1 276:1 277:1 278:1 279:1 280:1 281:1 282:1 283:1 284:1 285:1 286:1 287:1 288:1 289:1 290:1 291:1 292:1 293:1 294:1 295:1 296:1 297:1 298:1 299:1 300:1 301:1 302:0.8667 303:0.8333 304:0.8167 305:0.8 306:0.8 307:0.8 308:0.8 309:0.8 310:0.7833 311:0.9167 312:0.9 313:0.9 314:0.9 315:0.9167 316:1 317:0.6 318:0.6 319:0.6 320:0.6 321:0.5833 322:0.5833 323:0.6 324:0.5833 325:0.5833 326:0.5667 327:0.5167 328:0.5167 329:0.5167 330:0.5 331:0.5 332:0.5 333:0.5 334:0.5 335:0.5 336:0.5 337:0.5 338:0.5 339:0.5 340:0.5 341:0.4667 342:0.4667 343:0.4667 344:0.4667 345:0.4667 346:0.45 347:0.45 348:0.45 349:0.45 350:0.45 351:0.45 352:0.45 353:0.45 354:0.45 355:0.45 356:0.45 357:0.45 358:0.45 359:0.45 360:0.45 
1.465408862755756 1:0.3667 2:0.3667 3:0.3667 4:0.3667 5:0.3667 6:0.3667 7:0.3667 8:0.3667 9:0.3667 10:0.3667 11:0.3667 12:0.3667 13:0.3667 14:0.3667 15:0.3667 16:0.3667 17:0.3667 18:0.3667 19:0.3833 20:0.3833 21:0.3833 22:0.3833 23:0.3833 24:0.3833 25:0.3833 26:0.3833 27:0.3833 28:0.4 29:0.4 30:0.4 31:0.4 32:0.3833 33:0.4 34:0.4 35:0.4 36:0.4 37:0.4167 38:0.4167 39:0.4167 40:0.4333 41:0.4333 42:0.4333 43:0.45 44:0.45 45:0.45 46:0.4667 47:0.4667 48:0.4667 49:0.4833 50:0.4667 51:0.5667 52:0.5667 53:0.55 54:0.5833 55:0.5833 56:0.6 57:1 58:1 59:1 60:1 61:1 62:1 63:1 64:1 65:1 66:1 67:1 68:1 69:1 70:1 71:1 72:1 73:1 74:1 75:1 76:1 77:1 78:1 79:1 80:1 81:1 82:1 83:1 84:1 85:1 86:1 87:1 88:1 89:1 90:0.8333 91:0.8333 92:0.8333 93:0.8333 94:0.8333 95:0.8333 96:0.8333 97:0.8333 98:0.8333 99:1 100:1 101:1 102:1 103:1 104:1 105:1 106:1 107:1 108:1 109:1 110:1 111:1 112:1 113:1 114:1 115:1 116:1 117:1 118:1 119:1 120:0.9 121:0.9 122:0.7667 123:0.7333 124:0.7333 125:0.7333 126:0.7333 127:0.6667 128:0.65 129:0.6333 130:0.6333 131:0.6167 132:0.6167 133:0.5667 134:0.5667 135:0.6 136:0.5167 137:0.5 138:0.5 139:0.4833 140:0.4833 141:0.4667 142:0.43863158 143:0.43863158 144:0.43863158 145:0.43863158 146:0.43863158 147:0.43863158 148:0.43863158 149:0.43863158 150:0.43863158 151:0.43863158 152:0.43863158 153:0.50873684 154:0.52631579 155:0.52631579 156:0.52631579 157:0.51785542 158:0.4999625 159:0.51785542 160:0.94642838 161:1 162:1 163:1 164:1 165:1 166:1 167:1 168:1 169:1 170:1 171:1 172:1 173:1 174:1 175:1 176:1 177:0.94642838 178:0.85717806 179:0.85717806 180:0.80360644 181:0.80360644 182:0.80360644 183:0.80360644 184:0.80360644 185:0.80360644 186:0.83928514 187:0.80360644 188:0.80360644 189:0.80360644 190:0.80360644 191:0.80360644 192:0.87496384 193:0.78571352 194:0.53574834 195:0.55353412 196:0.53574834 197:0.53574834 198:0.55353412 199:0.53574834 200:0.39281926 201:0.39281926 202:0.39281926 203:0.39281926 204:0.39281926 205:0.39281926 206:0.37503348 207:0.39281926 208:0.37503348 209:0.37503348 210:0.37503348 211:0.37503348 212:0.37503348 213:0.37503348 214:0.37503348 215:0.37503348 216:0.37503348 217:0.37503348 218:0.37503348 219:0.37503348 220:0.39281926 221:0.4333 222:0.4333 223:0.45 224:0.5167 225:0.5333 226:0.5167 227:0.5333 228:0.5167 229:0.5333 230:0.5167 231:0.5333 232:0.55 233:0.55 234:0.5833 235:0.5833 236:0.5667 237:0.5833 238:0.6667 239:0.6667 240:0.6667 241:0.6667 242:0.6667 243:0.6833 244:0.6833 245:0.7167 246:0.7333 247:0.7667 248:0.7833 249:0.8167 250:0.85 251:0.9 252:0.95 253:1 254:1 255:1 256:1 257:1 258:1 259:1 260:1 261:1 262:1 263:1 264:1 265:1 266:1 267:1 268:1 269:1 270:1 271:1 272:1 273:1 274:1 275:1 276:1 277:1 278:1 279:1 280:1 281:1 282:1 283:1 284:1 285:1 286:1 287:1 288:1 289:1 290:1 291:1 292:1 293:0.8833 294:0.8833 295:0.8833 296:0.8833 297:0.85 298:0.8333 299:0.8167 300:0.8167 301:0.75 302:0.7333 303:0.7333 304:0.7333 305:0.75 306:0.7 307:0.6167 308:0.6 309:0.6 310:0.6 311:0.6 312:0.6 313:0.6 314:0.6 315:0.5167 316:0.5167 317:0.5 318:0.5 319:0.4833 320:0.4833 321:0.4667 322:0.4667 323:0.4667 324:0.45 325:0.45 326:0.45 327:0.4333 328:0.4333 329:0.4333 330:0.4333 331:0.4167 332:0.4167 333:0.4167 334:0.4167 335:0.4167 336:0.4 337:0.4 338:0.4 339:0.4 340:0.4 341:0.4 342:0.4 343:0.4 344:0.3833 345:0.3667 346:0.3667 347:0.3667 348:0.3667 349:0.3667 350:0.3667 351:0.3667 352:0.3667 353:0.3667 354:0.3667 355:0.3667 356:0.3667 357:0.3667 358:0.3667 359:0.3667 360:0.3667 
0.1148003145982911 1:0.3 2:0.3 3:0.3 4:0.3 5:0.3 6:0.3 7:0.3 8:0.3 9:0.3 10:0.3 11:0.3 12:0.3 13:0.3 14:0.3 15:0.3 16:0.3 17:0.3 18:0.3 19:0.3 20:0.3 21:0.3 22:0.3167 23:0.3167 24:0.3167 25:0.3167 26:0.3167 27:0.3167 28:0.3167 29:0.3167 30:0.3333 31:0.3333 32:0.3333 33:0.3333 34:0.3333 35:0.3333 36:0.35 37:0.35 38:0.35 39:0.35 40:0.3667 41:0.3833 42:0.3667 43:0.3833 44:0.3833 45:0.3833 46:0.4 47:0.4333 48:0.4333 49:0.4333 50:0.4333 51:0.4333 52:0.4333 53:0.5 54:0.5 55:0.5 56:0.9 57:0.7 58:0.7 59:0.7 60:0.7 61:0.7 62:0.7 63:0.7 64:0.7167 65:0.7 66:0.7833 67:0.7833 68:0.7833 69:0.7833 70:0.8167 71:0.8667 72:1 73:1 74:1 75:1 76:1 77:1 78:1 79:1 80:1 81:1 82:1 83:1 84:0.85 85:0.8333 86:0.6333 87:0.6333 88:0.6333 89:0.6333 90:0.6333 91:0.6333 92:0.6333 93:0.6333 94:0.6333 95:1 96:1 97:0.8667 98:0.8833 99:0.7667 100:0.7667 101:0.75 102:0.75 103:0.7167 104:0.7167 105:0.7167 106:0.6667 107:0.6667 108:0.65 109:0.6667 110:0.6667 111:0.65 112:0.6667 113:0.6667 114:0.65 115:0.6667 116:0.5 117:0.4833 118:0.4833 119:0.4833 120:0.4833 121:0.4833 122:0.4833 123:0.4833 124:0.4833 125:0.4833 126:0.4833 127:0.6833 128:0.6833 129:0.6667 130:0.6833 131:0.7 132:0.7 133:0.5833 134:0.5833 135:0.5833 136:0.5833 137:0.5833 138:0.5833 139:0.5833 140:0.5833 141:0.5833 142:0.56136842 143:0.56136842 144:0.57894737 145:0.57894737 146:0.57894737 147:0.59652632 148:0.614 149:0.63157895 150:0.64915789 151:0.73684211 152:0.73684211 153:0.75442105 154:0.77189474 155:0.77189474 156:0.87715789 157:0.87496384 158:0.89285676 159:0.91074968 160:0.94642838 161:1 162:1 163:1 164:1 165:1 166:1 167:1 168:1 169:1 170:1 171:1 172:1 173:1 174:1 175:1 176:1 177:1 178:1 179:1 180:1 181:1 182:1 183:1 184:0.82139222 185:0.82139222 186:0.82139222 187:0.82139222 188:0.7678206 189:0.62499866 190:0.57142704 191:0.48217672 192:0.44639088 193:0.39281926 194:0.39281926 195:0.39281926 196:0.39281926 197:0.39281926 198:0.39281926 199:0.39281926 200:0.39281926 201:0.39281926 202:0.39281926 203:0.39281926 204:0.39281926 205:0.78571352 206:0.78571352 207:0.26789024 208:0.26789024 209:0.24999732 210:0.24999732 211:0.26789024 212:0.24999732 213:0.24999732 214:0.26789024 215:0.24999732 216:0.24999732 217:0.26789024 218:0.24999732 219:0.24999732 220:0.26789024 221:0.3 222:0.3 223:0.4667 224:0.4333 225:0.4333 226:0.4333 227:0.4333 228:0.4333 229:0.4333 230:0.4333 231:0.4333 232:0.4333 233:0.4333 234:0.4333 235:0.4667 236:0.4667 237:0.4667 238:0.4667 239:0.45 240:0.4667 241:0.4833 242:0.4667 243:0.4833 244:0.4667 245:0.4833 246:0.4667 247:0.4667 248:0.4667 249:0.5167 250:0.4667 251:0.5167 252:0.5167 253:0.5167 254:0.5333 255:0.5667 256:0.5667 257:0.6333 258:0.6333 259:0.6333 260:0.7333 261:0.7667 262:0.4167 263:0.4167 264:0.4167 265:0.4167 266:0.4167 267:0.4167 268:0.4167 269:0.4167 270:0.4167 271:0.4167 272:0.4167 273:0.6 274:0.6333 275:0.6333 276:0.6333 277:0.65 278:1 279:1 280:1 281:1 282:1 283:1 284:1 285:1 286:0.9333 287:0.8667 288:0.8167 289:0.6667 290:0.6333 291:0.6333 292:0.6333 293:0.6333 294:0.6333 295:0.6333 296:0.6167 297:0.6167 298:0.6 299:0.6167 300:0.6167 301:0.55 302:0.55 303:0.55 304:0.55 305:0.55 306:0.55 307:0.55 308:0.55 309:0.55 310:0.55 311:0.7167 312:0.7 313:0.6833 314:0.7 315:0.6833 316:0.3667 317:0.3667 318:0.3667 319:0.3667 320:0.3667 321:0.3667 322:0.3667 323:0.35 324:0.35 325:0.35 326:0.35 327:0.3333 328:0.3333 329:0.3333 330:0.3333 331:0.3333 332:0.3333 333:0.3167 334:0.3167 335:0.3167 336:0.3167 337:0.3167 338:0.3167 339:0.3167 340:0.3167 341:0.3 342:0.3 343:0.3 344:0.3 345:0.3 346:0.3 347:0.3 348:0.3 349:0.3 350:0.3 351:0.3 352:0.3 353:0.3 354:0.3 355:0.3 356:0.3 357:0.3 358:0.3 359:0.3 360:0.3 
